tree
version=v4
num_class=1
num_tree_per_iteration=1
label_index=0
max_feature_idx=68
objective=huber
feature_names=accrual accruals_to_cash_flow altman_z_score analyst_dispersion analyst_revision beat_miss_streak beneish_aqi beneish_gmi beneish_m_score beneish_sgi bm capex_intensity capex_to_depreciation cash_conversion_cycle ccc_trend cf_earnings_divergence debt_maturity_risk debt_to_equity_change dsri earnings_persistence earnings_smoothness eps_dispersion_trend eps_revision_1m eps_revision_3m fcf_to_revenue fcf_to_revenue_trend gross_margin_trend gross_margin_vol gsector idio_vol insider_buy_ratio insider_buy_ratio_6m insider_ceo_buy insider_cluster_buy insider_num_sells inst_breadth inst_hhi inst_ownership_change interest_coverage_trend log_market_cap margin_divergence mom_12_2 mom_1m mom_6m montier_c_score net_debt_to_ebitda net_margin_trend net_operating_assets non_current_accruals num_analysts_fy1 num_institutions ohlson_o_score operating_leverage operating_margin_trend pe_op_basic peg_1yrforward peg_ltgforward piotroski_f_score rd_intensity realized_vol revenue_acceleration revenue_cagr_2yr revenue_growth_yoy revision_breadth sue sue_ibes total_inst_shares turnover working_capital_accruals
feature_infos=[-0.55727720260620117:0.3130696713924408] [-5:5] [-8.9319934844970703:20] [0:3] [-4:4.4615383148193359] [-8:8] [0:61.147438049316406] [-56.984756469726562:66.540596008300781] [-48.432186126708984:101.72663116455078] [0:33.796245574951172] [0.032380975782871246:4.0087838172912598] [0:67.785713195800781] [0:171.69357299804688] [-16354.3857421875:7982.39501953125] [-4596.3955078125:4416.43115234375] [-5:5] [0:1] [-134.94747924804688:133.89874267578125] [0:44.245933532714844] [-0.9414178729057312:0.98749446868896484] [0.0099958730861544609:5] [-4.5006241798400879:4.6471738815307617] [-2:2] [-2:2] [-1104.7855224609375:13.319999694824219] [-168.21368408203125:146.90884399414062] [-95.323074340820312:81.417816162109375] [0.0010995946358889341:821.4779052734375] [10:55] [0.11248749494552612:1.3582457304000854] [0:1] [0:1] [0:1] [0:1] [0:42] [-1:1] [0.024483084678649902:1] [-0.99998563528060913:2] [-32.799999237060547:31.386129379272461] [4.6100034713745117:6.2099995613098145] [-51.748241424560547:51.026065826416016] [-0.83720958232879639:2.499995231628418] [-0.38596498966217041:0.57142901420593262] [-0.73166561126708984:1.6190488338470459] [0:6] [-20:20] [-120.82647705078125:115.57477569580078] [-1.3164207935333252:3.6300058364868164] [-0.86274945735931396:1.0347656011581421] [1:31] [1:348] [-7.625338077545166:10] [-10:10] [-121.46255493164062:113.92003631591797] [-520.40264892578125:333.66665649414062] [-24.6318359375:15.206896781921387] [-16.308486938476562:20.892602920532227] [0:9] [-0.0024312078021466732:1202.4931640625] [0.019449463114142418:2.2950952053070068] [-119.73381042480469:79.354476928710938] [-0.91318255662918091:16.351152420043945] [-1:113.67857360839844] [-2:1.5] [-4.1999998092651367:1.5263158082962036] [-5:5] [3000:314011616] [9.0566036305972375e-06:0.0088182054460048676] [-0.58361011743545532:0.54318046569824219]
tree_sizes=5995 6107 6059 5841 6046 6086 6053 6019 6073 6092 5869 6054 5944 6091 6084 6020 6103 6103 6086 5248 5331 6088 6106 6101 5655 6096 5731 5614 6088 6117 6098 5070 6084 6116 6088 6083 6087 5862 6069 6062 6087 5778 5821 6104 6093 6088 5464 6087 5897 5463 6076 6106 6117 6107 5149 5424 5795 6101 6097 5663 6093 6089 6088 5821 5544 6124 5718 6099 6090 6095 5987 5899 6112 6094 6095 5291 6076 6123 6088 5824 5018 5855 6121 6101 5813 6098 5525 5997 6098 5801 5639 5975 5075 5384 5361 6127 4897 5813 5268 6022 4437 4754 5842 5125 4966 5230 6093 5526 5175 5453 4707 5957 5722 4977 4783 5930 6088 5816 6029 4539 4411 6118 4682 4998 5063 4804 5151 5346 4901 5629 5641 4621 5917 4893 4981 4827 5940 5448 4710 5089 6010 4500 5172 5152 5095 4339 3734 4404 3669 5273 4198 4980 5805 4495 5073 5619 4592 4402 4598 5268 4494 4802 5650 4498 3557 4625 5262 6023 4397 5834 5379 3952 5532 4319 3997 3590 5636 3549 4380 3998 4435 4767 4402 4956 4399 3693 4971 4878 5380 3853 4107 3193 4222 4138 4236 5059 4422 6119 4511 5542 4106 3466 3748 3927 3464 4963 5054 4523 4022 4420 4791 4959 5072 4147 4799 3067 4247 2881 6034 3668 4138 3181 4532 4302 5065 3941 4499 4988 4538 3656 3190 4226 4779 3609 4043 4613 3658 4669 4111 5041 5341 3472 4128 4502 4154 3000 3564 3361 3649 3549 4222 3367 4298 4255 3381 4514 3060 2877 4127 3960 4036 5269 3081 3952 5187 3371 2323 2891 3468 4895 3396 4898 4521 3848 4131 3940 4017 4317 4057 3669 3666 3943 3103 3757 3078 4201 3454 5565 3383 4000 3668 1962 2051 4224 2632 3462 2323 4611 2621 3197 3448 3290 3683 3382 3269 2806 4423 3082 4032 4881 3981 2332 4224 2989 3851 4298 2985 4874 2411 2980 2810 4423 3559 4119 2900 3290 3746 5263 2431 2995 2406 4395 2056 4236 3096 3582 2615 4028 4224 3473 2126 3854 4693 3437 2612 3391 2432 2183 4219 3663 3005 4219 3478 3648 2617 3474 2895 4026 3479 1936 2445 2040 3553 2925 4584 3773 4988 3456 1846 2514 3279 3756 2984 2620 1866 3002 3835 3845 3648 3753 4987 2049 3553 3647 2704 4807 1942 2888 3266 4524 2988 2705 3567 2524 2793 3171 4604 2709 2590 3551 3086 3297 2043 1667 2886 3740 3267 4167 2439 3371 3094 5083 3751 3094 4028 2796 3490 3266 3447 2623 3842 3478 3474 3968 3279 1755 4682 2604 3529 2402 1660 2986 2040 3836 4682 2810 4217 3545 4325 1946 2119 4348 2530 3942 3666 4134 2408 2324 2792 3177 3171 2444 3462 2798 4505 3949 2246 4125 5042 3335 2871 2316 2328 3185 3285 1744 2985 3179 2239 3189 3565 2416 3379 1951 2320 2873 3198 2796 3048 3271 2990 2709 4320 2886 3949 2345 3011 2803 1942 3844 2244 2897 3183 3822 4785 4783 2044 2425 4136 2128 4392 3470 3077 2717 2152 1688 3200 4152 3468 3292 2594 3533 3196 3335 4102 2718 3577 3372 2909 3276 4252 3467 4515 3392 3562 2418 1672 4236 1929 2714 2496 2614 2784 1770 3085 3110 3396 3185 2350 2306 2509 3375 3093 3396 2995 2245 1272 1858 2338 4131 4123 3197 3083 4318 2718 2619 2129 2604 3289 2890 1958 2697 3275 2437 1762 1852 3666 3086 2452 2486 2902 3838 2323 2139 3723 4118

Tree=0
num_leaves=63
num_cat=0
split_feature=5 36 2 36 60 42 10 42 41 22 67 42 5 18 2 16 36 66 14 39 42 10 22 41 67 46 41 20 42 10 14 26 26 36 36 41 10 12 16 41 22 62 21 64 20 39 67 41 47 67 47 41 22 66 62 6 48 16 21 16 38 18
split_gain=265.673 107.806 91.0739 50.6959 22.1043 18.4237 19.3034 17.1576 16.9717 15.3863 11.6322 11.4975 10.8083 10.3859 10.283 10.1066 10.0768 9.46888 8.53598 8.51579 8.45264 7.45532 7.40254 7.20543 6.95457 6.76761 7.97573 6.46433 6.40066 6.2087 6.02593 5.94988 5.92295 5.62802 5.55225 5.52233 5.21592 5.81073 5.17341 4.99006 4.92023 4.85318 4.78638 6.72736 4.76101 6.00613 5.45231 4.13574 4.23663 4.01755 3.93327 3.82578 3.71506 3.69687 3.67619 3.61783 4.13365 3.48477 3.37231 3.36954 3.1516 2.93648
threshold=-1.0000000180025095e-35 0.035630818456411369 inf 1.0000000180025095e-35 -0.49433586001396174 -0.055729499086737626 0.77118453383445751 -0.092636000365018831 0.15326209366321566 -0.069710247218608842 0.0031692846678197388 0.15077000111341479 -7.4999999999999991 0.75790184736251842 -2.281606793403625 0.20103794336318973 0.098509963601827635 36217062.000000007 9.6135058403015154 5.3127009868621835 0.097900498658418669 0.15280804783105853 -0.03225502930581569 -0.50971406698226918 0.00046590800047852104 -0.0070928207132965318 0.78291326761245739 0.95443236827850353 0.065119501203298583 0.11276716366410257 0.44825544953346258 0.0046079128514975318 0.022628843784332279 0.22916544228792193 0.19639139622449878 0.53009226918220531 0.2185953110456467 1.0885418057441714 0.066357400268316283 -0.0067224525846540919 -0.024387765675783154 3.8024389743804936 0.00057133240625262271 0.78584605455398571 0.77914273738861095 5.7938354015350351 0.0013268671464174988 -0.23213415592908856 0.056930482387542732 0.00092900480376556527 0.33749410510063177 -0.37902145087718958 -0.039988003671169274 16798728.000000004 0.018841683864593509 0.67607280611991893 0.0017798837507143619 0.051175970584154136 -0.081959627568721757 0.071988437324762358 1.5309524536132815 1.9498527646064761
decision_type=10 10 8 10 10 10 8 10 8 10 2 10 8 10 10 10 10 10 8 2 10 10 10 10 2 8 10 10 10 10 8 8 8 8 10 10 10 10 10 8 10 8 10 8 10 2 2 10 8 2 8 10 8 8 10 10 8 10 10 10 8 8
left_child=2 10 3 9 14 22 47 12 20 15 36 25 19 41 -3 -1 32 34 39 -5 31 -14 24 60 -4 40 -27 57 29 -25 -30 -8 44 35 38 -10 37 55 -16 -13 -9 -12 43 -38 46 -46 -6 -7 -49 -36 -24 -45 -23 -35 -21 -2 -57 -11 -22 -34 -18 -19
right_child=1 4 5 7 16 6 8 11 33 27 13 18 21 -15 17 -17 23 61 -20 54 58 52 50 28 -26 26 -28 -29 30 -31 -32 -33 59 53 49 -37 42 -39 -40 -41 -42 -43 -44 51 45 -47 -48 48 -50 -51 -52 -53 -54 -55 -56 56 -58 -59 -60 -61 -62 -63
leaf_value=0.0015638226811484238 -0.00017019049414399674 0.0040635413829926224 0.0040495225976398177 0.002098876735836678 0.0041160600994489859 0.0030060106230048482 0.0033344541414628229 0.0029370992942898879 0.0057381515751227397 0.0024028474995390213 0.0016321243331032431 0.0026592455457903653 0.0010286718238846316 -0.0016509127644816469 0.0024244760720512444 -0.00083035623642345327 0.0023107519332369545 0.0039075805914367129 0.001532243701573065 0.0034861576192943273 0.0027488181225753376 0.0016053028781239525 0.0049416381959063466 0.0012139018553066015 0.0026134288847934482 0.0042367150525364147 0.0027995979179574197 0.0014219637116679078 0.0026858802658308199 0.0029620000395310553 0.0049026376924208373 0.0049274735761452686 0.0018837909638873991 0.0038373487939618212 0.0016107044652066752 0.0074308510441911061 0.00017145348391074027 -0.00080448980263184101 0.001401772996622233 0.004091289834989526 0.0038475167421364986 -0.00042080137428279849 0.00019242589756711739 0.0012194514078104914 0.0036820678127911484 0.0052235428983267718 0.0025885003102369348 0.0052065358705188618 0.0039740068773285939 -4.6621834459372857e-05 0.0033658385486413874 0.0025480175220339452 0.0029763118457175374 0.0053552016904562239 0.0049803852030386505 0.0020202459296126481 0.00025493559247114069 0.0040669814187654137 0.0043179958059999905 0.0035011627021121917 0.00075608548683175122 0.002432323125508232
leaf_weight=969 567 526 1384 567 907 802 577 2281 3736 541 525 1106 813 891 2223 687 653 553 770 729 684 567 1240 620 1667 10123 946 686 508 1722 592 6448 676 508 711 505 579 692 2271 1074 3205 544 705 824 1732 847 1236 743 4063 653 503 1220 2033 1311 757 755 509 583 552 500 551 660
leaf_count=969 567 526 1384 567 907 802 577 2281 3736 541 525 1106 813 891 2223 687 653 553 770 729 684 567 1240 620 1667 10123 946 686 508 1722 592 6448 676 508 711 505 579 692 2271 1074 3205 544 705 824 1732 847 1236 743 4063 653 503 1220 2033 1311 757 755 509 583 552 500 551 660
internal_value=0.00327376 0.00202979 0.00388108 0.00330209 0.00266462 0.00454685 0.00474769 0.0035382 0.0050399 0.00160353 0.000556949 0.00374637 0.0027959 -0.000448354 0.00204801 0.000560298 0.0031094 0.00189742 0.00288447 0.00365483 0.00459581 0.002279 0.00371096 0.00258722 0.00326556 0.00390011 0.0041136 0.0025637 0.00293823 0.00249517 0.00387948 0.00479698 0.00352072 0.00564344 0.0016478 0.00594471 0.000896863 0.000377626 0.00190582 0.00336431 0.00346874 0.000573654 0.00129472 0.00159687 0.00375813 0.00419168 0.00323616 0.00400032 0.00416667 0.000806929 0.00448929 0.00200798 0.00267411 0.00493482 0.0042515 0.000835115 0.00129907 0.003267 0.00344976 0.00257074 0.00159053 0.00310593
internal_weight=79112 25952 53160 28437 18141 24723 19929 24971 14321 3466 7811 19505 5466 1960 7597 1656 10544 7071 2950 2053 8261 3413 4794 4646 3051 16555 11069 1810 3442 2342 1100 7025 5898 6060 5858 4241 5851 2523 4494 2180 5486 1069 3328 2623 4722 2579 2143 5608 4806 1364 1743 2044 2600 1819 1486 1831 1264 1124 1236 1176 1204 1213
internal_count=79112 25952 53160 28437 18141 24723 19929 24971 14321 3466 7811 19505 5466 1960 7597 1656 10544 7071 2950 2053 8261 3413 4794 4646 3051 16555 11069 1810 3442 2342 1100 7025 5898 6060 5858 4241 5851 2523 4494 2180 5486 1069 3328 2623 4722 2579 2143 5608 4806 1364 1743 2044 2600 1819 1486 1831 1264 1124 1236 1176 1204 1213
is_linear=0
shrinkage=1


Tree=1
num_leaves=63
num_cat=0
split_feature=5 36 48 37 37 29 29 23 24 29 67 50 43 44 67 67 20 46 9 23 15 15 50 24 17 22 36 9 37 24 24 31 22 29 31 44 37 55 17 21 55 65 20 55 31 50 12 43 43 55 37 17 60 13 67 67 14 43 60 40 37 29
split_gain=231.989 100.884 81.0271 55.7188 32.7375 23.1011 22.8311 20.8097 15.1568 12.4702 12.0367 11.2231 13.0696 9.85088 9.69193 9.36384 9.34293 9.26162 10.3267 8.6566 8.4758 7.98938 7.65266 7.33348 6.77607 6.44064 8.55547 6.38714 6.28704 6.10339 6.09576 6.07469 5.87016 5.80034 5.66481 5.39117 5.35015 5.17462 5.78653 5.71505 4.96885 6.44883 4.80807 6.7295 4.59614 4.1696 4.08248 3.96612 3.96549 3.90233 3.79353 3.65024 3.60534 4.80288 3.54316 5.04651 3.91909 3.4494 3.36305 3.31976 3.09246 3.04096
threshold=-1.0000000180025095e-35 0.34388343989849096 inf 0.28875587880611425 -0.091603372246026979 0.69792744517326366 0.68711727857589733 -0.058136718347668641 -0.21581772714853284 0.72680336236953746 0.00053953976021148275 66.500000000000014 0.025047259405255321 4.5000000000000009 0.00046590800047852104 0.0032457020133733754 1.7577338814735415 0.0080478042364120501 1.1686345338821413 -0.072424910962581621 -0.83860725164413441 0.046377563849091537 104.50000000000001 -0.51356336474418629 0.32494965195655828 -0.0053689207416027776 0.076921306550502791 0.98170089721679699 -0.0077911640983074895 -0.15542171895503995 -0.09061191231012343 0.56543695926666271 -0.0047056870535016051 0.40151001513004309 0.69069263339042675 3.5000000000000004 0.013438647147268059 -0.058498525992035859 0.00095799643895588826 -0.0071574039757251731 -0.99557131528854359 4.1307377815246591 1.5111525654792788 -2.3621240854263301 0.40758720040321356 105.50000000000001 0.46791091561317449 0.040851967409253127 -0.092371668666601167 -0.03218575753271579 -0.77166852355003346 0.0037481313338503246 0.2145025581121445 -24.550949096679684 0.00050189640023745607 0.0014097343664616349 0.68939590454101574 -0.061521014198660844 -0.072984311729669557 0.035232380032539375 -0.51002132892608631 0.51989147067070018
decision_type=10 8 8 8 8 8 10 10 8 8 2 8 10 8 2 2 8 10 10 8 10 10 8 8 10 8 8 8 10 8 10 10 10 8 8 10 8 8 10 8 10 10 10 10 10 10 10 8 8 8 10 10 8 10 2 2 10 8 10 8 10 8
left_child=2 5 3 8 11 30 23 10 21 20 48 12 50 -13 57 16 29 34 22 28 -3 61 36 -5 27 -12 -27 -21 33 59 40 -20 -22 -10 44 -30 -19 39 -39 -36 -2 46 43 -25 -7 -43 -42 49 -6 -18 -4 -46 53 -34 -32 -56 -57 -9 -16 -11 -15 -1
right_child=1 9 4 6 7 17 -8 14 19 15 25 13 -14 60 58 -17 47 18 31 24 32 -23 -24 42 -26 26 -28 -29 35 -31 54 -33 52 -35 37 -37 -38 38 -40 -41 41 45 -44 -45 51 -47 -48 -49 -50 -51 -52 -53 -54 -55 55 56 -58 -59 -60 -61 -62 -63
leaf_value=0.00051868109206557175 -0.0011853087818044794 -0.00016189436913445227 -0.00025667994166761048 -0.0025607987199143924 0.00020729137476724848 -0.001635623782303522 -0.0035252522162921001 0.0011243814719775942 0.0012622792350356639 -0.0034945793117112972 -0.0012970357138068905 0.0011953415656668087 0.0032384088541707479 0.0037088946671086126 0.0010976869148091499 -0.0040277335311320536 -0.0049384404251746747 -0.00143605406878089 -0.0026428026665790555 0.00026322099129662269 -0.0032183050199842324 -0.001912916640364143 0.0017410156861256141 -0.0010355230473367094 -0.00079454899094862064 0.0015873732986241907 -0.00017879820141894582 0.0009422713934477858 -0.00090737500585189848 -0.0010039530992810056 -0.00047678934571551636 -0.00033981647413694162 -0.00028845080735176367 -0.00014987464638880395 0.0001728485985925631 0.00035237392701024082 0.0005415520651187685 -0.001460873634265687 -0.003057952114185007 -0.0016125548806505707 0.00012981813141003134 8.8208084133719272e-05 -0.00168384662151098 0.00039297722471284249 -0.00090543375436675361 0.0016108864609290648 -0.0015326477441760503 -0.0025023915514424408 0.0010722042476149626 -0.003027924901488132 0.0013322298898993455 0.00069604485811386864 -0.0023935262400941238 -0.0021773515193296285 0.0013731140818788264 -0.00040428799710598515 0.0010821179781158679 0.0021632818020174685 -0.00021856529535303621 -0.0018381550543876109 0.0023712675723625834 -0.00096398507921871155
leaf_weight=761 1072 610 630 536 1505 734 915 924 1241 532 802 606 607 1642 2970 1329 501 538 523 4653 790 922 599 1682 693 768 3052 9508 2150 993 657 510 671 1373 554 1179 705 1144 953 1456 586 1359 852 1319 671 573 756 786 5880 552 718 603 945 553 1462 1033 643 3687 508 614 570 519
leaf_count=761 1072 610 630 536 1505 734 915 924 1241 532 802 606 607 1642 2970 1329 501 538 523 4653 790 922 599 1682 693 768 3052 9508 2150 993 657 510 671 1373 554 1179 705 1144 953 1456 586 1359 852 1319 671 573 756 786 5880 552 718 603 945 553 1462 1033 643 3687 508 614 570 519
internal_value=-9.02458e-06 -0.00116987 0.000558786 9.82082e-06 0.00118337 -0.000497 -0.00137527 0.000917594 0.000329543 -0.00246735 0.000520869 0.00229992 0.00141945 0.00290662 0.00150561 -0.00292981 -0.00255803 -0.00102097 -0.000317398 0.000454928 -0.00177614 -0.00085233 0.000355332 -0.000923208 0.00064845 -7.91559e-05 0.000177504 0.000719428 -2.86499e-05 -0.0018747 8.16957e-05 -0.00151436 -0.00210758 0.000521104 -0.00135098 -0.000460913 -0.000315525 -0.00167045 -0.00219294 -0.00112051 -0.000301492 -1.02819e-05 -0.000691986 -0.00040756 -0.000694289 0.000543577 -0.000807812 -0.00334479 0.000896405 -0.00395738 0.000590326 -0.000146503 -0.00169586 -0.00114846 0.000520733 0.000730487 0.000166604 0.00195686 0.000904965 -0.00262025 0.00337101 -8.27381e-05
internal_weight=79179 26007 53172 28303 24869 17131 5304 20096 22999 8876 12007 4773 1955 2818 8089 5307 3978 8990 2875 20797 3569 2202 1842 4389 14854 4622 3820 14161 5943 2139 8141 1033 2959 2614 6115 3329 1243 4107 2097 2010 4346 3274 3853 3001 2008 1932 1342 1839 7385 1053 1348 1274 2169 1224 3795 3138 1676 4611 3478 1146 2212 1280
internal_count=79179 26007 53172 28303 24869 17131 5304 20096 22999 8876 12007 4773 1955 2818 8089 5307 3978 8990 2875 20797 3569 2202 1842 4389 14854 4622 3820 14161 5943 2139 8141 1033 2959 2614 6115 3329 1243 4107 2097 2010 4346 3274 3853 3001 2008 1932 1342 1839 7385 1053 1348 1274 2169 1224 3795 3138 1676 4611 3478 1146 2212 1280
is_linear=0
shrinkage=0.015


Tree=2
num_leaves=63
num_cat=0
split_feature=59 37 51 61 8 59 59 54 2 54 11 37 54 19 55 59 66 11 54 65 67 19 3 37 9 62 20 47 55 68 2 2 11 18 18 20 55 20 43 59 41 8 43 65 54 41 3 7 67 41 9 19 47 3 43 18 67 47 12 65 67 59
split_gain=300.771 109.498 77.7228 36.6534 29.5734 22.171 21.9431 17.3028 15.5351 13.4787 11.5517 11.5446 10.9765 10.6313 10.0001 9.96677 19.1987 8.80163 8.18322 8.11813 7.85979 9.25323 7.03297 8.16607 6.41494 6.39576 6.25939 6.14958 6.03705 5.97579 5.76698 5.95579 5.51532 5.5139 6.43583 5.37308 5.20306 5.1858 5.04526 4.42307 4.40442 4.37109 4.36487 4.33775 4.30134 5.27716 4.19052 4.03573 4.01079 3.95125 3.95044 5.41498 5.28555 3.89585 3.88183 3.81398 3.36619 5.81725 3.22876 2.64195 2.56647 2.35294
threshold=0.41281354427337652 1.432189464569092 -3.0106096267700191 0.44279181957244879 inf 0.56151708960533153 0.24054440110921863 1.8504143953323366 1.085852384567261 3.7631512880325322 0.40524797141551977 1.432189464569092 -20.850532531738278 -0.016236910596489903 -2.1380093097686763 0.038409728556871421 16798728.000000004 0.047537609934806831 38.006116867065437 4.999662160873414 0.0032457020133733754 -0.25192403793334955 0.10893015190958978 -0.016530372202396389 1.1732148528099062 0.082423359155654921 1.238604009151459 0.085494425147771849 -0.58146432042121876 0.035592824220657356 5.1748597621917733 1.0992204546928408 0.012942220084369184 1.2965301275253298 0.93636113405227672 0.2500224262475968 -11.438236713409422 1.1586521267890932 -0.070684880018234239 0.92436617612838756 0.29781070351600653 -2.6365177631378169 -0.13296134024858472 1.4272125363349917 15.10557270050049 0.16738181561231616 0.1327779293060303 28.691119194030765 0.00073766463901847612 -0.37350770831108088 1.0000058412551882 -0.12819529324769971 0.42536531388759619 0.035749787464737899 0.011996137443929912 0.76455825567245495 0.00046590800047852104 0.69059145450592052 0.82745331525802623 -1.727032423019409 0.00046590800047852104 0.30702869594097143
decision_type=2 8 10 8 8 2 2 10 10 10 8 8 10 10 10 2 8 8 10 10 2 10 10 8 8 8 8 8 10 10 10 8 10 8 10 8 10 10 10 2 10 10 10 10 8 8 10 8 2 10 10 8 10 10 10 10 2 8 10 10 2 2
left_child=2 3 6 10 7 8 15 20 36 11 14 30 47 56 19 16 54 46 -9 35 21 38 23 58 -17 -24 55 40 59 -23 31 61 -28 34 -16 -2 -5 -12 -3 49 -26 -15 -10 -35 45 -43 -14 -7 -19 -6 51 -25 -52 -33 -1 -22 -8 -58 -11 -13 -29 -4
right_child=1 4 9 5 39 12 13 18 42 22 37 28 17 41 33 24 -18 48 -20 -21 26 29 25 50 27 -27 32 60 -30 -31 -32 53 -34 43 -36 -37 -38 -39 -40 -41 -42 44 -44 -45 -46 -47 -48 -49 -50 -51 52 -53 -54 -55 -56 -57 57 -59 -60 -61 -62 -63
leaf_value=0.00012961451492236187 0.00102978641504906 -0.0039057597646680927 -1.8969676855065584e-05 -0.00014358462825242574 -0.001294511842636587 -0.0039485906362508125 0.00084501892286015549 0.0002103924505326206 -0.0019142688636220255 0.002135108231950603 -0.00038741902242181821 -0.0014302093872291489 0.00020299596324390741 0.00034292747026974597 -3.5834189654055233e-05 0.00060914943368648475 0.0033944478990606637 -0.0024251930464862753 -0.0021095513329818798 -0.0021737905342697479 -0.00156380413206125 -0.0018420452615707577 -0.0011609412889491333 0.00076760957789392817 0.0020664037758858977 0.00081110758982542042 -0.0051131475221795697 0.0017629129655884041 -0.00019938004361237684 -0.0033192370542078106 -0.0013600466795378942 -0.0001899950628655965 -0.0031154365977872365 0.00017354029886944988 0.00074236152459827137 -0.00046282140926443189 0.0017082501265411267 -0.0022774308323464734 -0.0020898525554813182 -0.001737252887183725 0.0037434146126911331 0.0014601862585697559 -0.00035527196034093318 -0.0013450131465118627 0.00095618971508374035 0.002887614791467387 -0.0014168974157925203 -0.0020348568479938546 -0.0014094067313527305 0.0002296950173486165 -0.00061195720347170064 -0.00062747026991118529 0.0010506242323654309 0.00087749364241546687 0.001855748776061189 -0.0034277791098563937 0.00072747215816102741 -0.00071005560933454692 0.00086136918717088975 -0.0029618877654337861 0.0011275424656741475 -0.0013312249298284016
leaf_weight=575 624 1186 559 538 538 544 2356 739 776 980 635 554 966 695 3774 1229 2220 1297 629 554 507 4148 984 1076 1240 586 653 4750 525 736 661 1234 678 1015 6502 3937 919 678 520 564 515 1556 849 718 1369 958 565 500 2849 1289 516 1482 2472 2022 599 516 1354 1181 851 503 2128 685
leaf_count=575 624 1186 559 538 538 544 2356 739 776 980 635 554 966 695 3774 1229 2220 1297 629 554 507 4148 984 1076 1240 586 653 4750 525 736 661 1234 678 1015 6502 3937 919 678 520 564 515 1556 849 718 1369 958 565 500 2849 1289 516 1482 2472 2022 599 516 1354 1181 851 503 2128 685
internal_value=-3.6424e-05 -0.000930875 0.000916847 -0.000410392 -0.00208722 -0.00115125 0.00147738 -0.00243567 -9.70164e-05 0.000104674 -1.61909e-05 -0.000401461 -0.00163402 0.000924802 8.78534e-05 0.00187149 0.00257479 -0.00137136 -0.000859012 -0.000467159 -0.00267603 -0.00240531 0.000486306 0.000680333 0.00162812 -0.000423687 -0.00342659 0.00177257 -0.00152035 -0.00206813 -5.70576e-05 0.000135301 -0.00411212 0.000324471 0.000456534 -0.000257382 0.00102528 -0.00136945 -0.00336086 -0.000581883 0.00256861 0.00144414 -0.00110426 -0.000456809 0.00164016 0.00200938 -0.000396499 -0.00304755 -0.00173008 -0.00022063 0.000392507 -3.97044e-05 0.000762468 0.000472792 0.00101573 -0.00251755 0.000437418 5.709e-05 0.00154788 -0.00217102 0.00156751 -0.000745191
internal_weight=79358 40943 38415 28240 12703 9803 22725 10312 3082 15690 18437 6743 6721 9469 17124 13256 3394 5677 1368 5115 8944 6590 8947 7377 9862 1570 2354 8633 1582 4884 5161 4500 1331 12009 10276 4561 1457 1313 1706 2391 1755 4578 1625 1733 3883 2514 1531 1044 4146 1827 5546 2558 2988 3256 1174 1023 4891 2535 1831 1057 6878 1244
internal_count=79358 40943 38415 28240 12703 9803 22725 10312 3082 15690 18437 6743 6721 9469 17124 13256 3394 5677 1368 5115 8944 6590 8947 7377 9862 1570 2354 8633 1582 4884 5161 4500 1331 12009 10276 4561 1457 1313 1706 2391 1755 4578 1625 1733 3883 2514 1531 1044 4146 1827 5546 2558 2988 3256 1174 1023 4891 2535 1831 1057 6878 1244
is_linear=0
shrinkage=0.015


Tree=3
num_leaves=61
num_cat=0
split_feature=5 35 2 35 24 61 24 0 4 10 16 66 35 2 20 50 21 67 6 9 20 50 27 10 24 55 3 45 62 25 20 14 12 10 16 0 5 4 62 61 67 67 6 67 61 2 3 20 61 62 67 45 6 67 0 55 0 27 66 4
split_gain=245.548 96.7733 94.3498 47.9248 21.5856 21.1907 19.2656 17.5083 14.3424 15.2458 12.5834 11.911 11.8929 11.5635 10.1324 9.55076 12.0858 14.6807 9.111 8.81386 8.76146 8.70648 8.64218 7.87582 8.73935 7.61855 6.97735 6.71579 6.69242 6.17199 6.13732 5.88629 5.51904 5.49784 5.40136 5.33183 5.30227 4.40512 4.37835 4.36958 4.34311 4.26162 4.22695 4.21616 4.11839 3.96713 4.25205 3.9659 3.77851 3.63125 3.05032 2.97043 2.7056 3.48638 2.30337 2.21404 2.06275 2.05382 1.95933 1.4349
threshold=-1.0000000180025095e-35 inf inf inf -0.23273431509733197 0.57097709178924572 -0.23273431509733197 -0.029067001305520531 -0.16644325852394101 0.87244462966918956 0.0052784227300435313 29940799.000000004 inf -0.80299878120422352 0.47771596908569341 112.50000000000001 -0.034107245504856103 0.001635196909774095 0.94455891847610485 0.9650123417377473 1.6409765481948855 119.50000000000001 0.021921915933489803 0.60400894284248363 -0.021548711694777008 -0.75379082560539235 0.070890799164772048 2.5422425270080571 -0.010868007782846687 -0.058814277872443192 1.1145602464675906 -1.6394138336181638 1.2446104288101199 0.73204758763313305 0.053553413599729545 -0.00043083274795208121 -7.4999999999999991 -0.73622658848762501 0.063069991767406478 -0.096456915140151964 0.00061439842102117847 0.001635196909774095 0.98771569132804882 0.0034899807069450621 0.12117409706115724 1.3471721410751345 0.15632405132055285 0.95443236827850353 0.33591812849044805 -0.26798503100872034 0.00091833056649193179 1.2833582162857058 0.99980977177619945 0.00048386643175035721 -0.097723431885242448 -0.041807387024164193 -0.12475217878818511 0.16329152137041095 10588476.000000002 0.14900224655866626
decision_type=10 8 8 8 10 8 8 8 8 8 10 10 8 10 8 8 10 2 8 10 8 8 10 8 10 10 8 10 10 8 10 10 10 10 10 8 8 8 8 10 2 2 10 2 8 10 10 10 8 10 2 10 10 2 8 8 10 8 8 8
left_child=2 5 3 6 34 19 14 55 40 52 18 13 21 -7 -1 23 17 -17 -3 20 45 -11 38 24 -8 31 -20 29 -25 -16 -13 48 37 47 -5 43 -18 -24 -21 -22 -9 -33 -34 -15 -27 -2 -47 -6 -12 -46 -14 -28 53 -10 -50 59 -57 -58 -54 -4
right_child=1 10 7 4 33 11 15 8 9 12 25 30 50 35 27 16 36 -19 26 22 39 -23 32 28 -26 44 51 -29 -30 -31 -32 41 42 -35 -36 -37 -38 -39 -40 -41 -42 -43 -44 -45 49 46 -48 -49 54 -51 -52 -53 58 -55 -56 56 57 -59 -60 -61
leaf_value=0.00037223834334904125 0.00041389500302946232 -0.0033655148089022854 0.00017270327551568298 -0.0021333557884158426 0.00032320228967369912 0.00048413475325629826 -0.0011512693924310465 0.00069649103550510096 0.00099080819164531478 0.0017103405026027314 -0.0051009787311547755 0.00082823956429271632 0.0011585070574078511 -0.0013896786553141531 -0.0012541284136572165 0.00060925043863712693 0.001464551463839975 -0.001362379351957863 -2.2809730166942206e-05 0.00023095882645078559 -0.0010015024347732272 0.0026473901245930051 0.0013207760084334801 -0.00018193976954477683 4.7362271913501709e-05 -0.0015031217429190206 -0.0024517317950874264 -0.00031013827941571019 0.00084838842158578153 -0.0034875537007090546 -0.0011321025003971634 -0.0015571947381283055 -0.0020797659305163843 -0.001791996412989112 -0.0041784826099687889 -0.0029289858701610234 0.00049926075065451897 -0.00015081515064171484 0.0016600319256392742 -0.0028918688200090612 -0.0012056192088056256 -0.003535144177188906 -0.00031066930927812076 -0.0027206202580985664 -0.0020495036633718798 -0.0012655020593270094 0.00035976156064050277 -0.0012754224035720495 -0.0044037144096504225 -0.0038630330530091137 -7.9150694181410637e-05 -0.0011059599581496012 0.00098813056737775723 -0.00015757476028338714 -0.0031112910063191873 0.0012400875297722271 -0.0003565806109082109 0.0006988574302254476 0.0016660835630318168 -0.00087378515934339685
leaf_weight=735 982 659 677 549 941 539 1927 512 1558 6640 555 785 1578 3499 565 3127 3700 1161 636 981 580 3423 517 2311 4685 830 898 513 3653 567 654 500 551 826 677 824 1976 3707 953 539 560 512 680 641 543 1202 513 548 548 505 621 657 4015 955 987 636 732 942 1293 513
leaf_count=735 982 659 677 549 941 539 1927 512 1558 6640 555 785 1578 3499 565 3127 3700 1161 636 981 580 3423 517 2311 4685 830 898 513 3653 567 654 500 551 826 677 824 1976 3707 953 539 560 512 680 641 543 1202 513 548 548 505 621 657 4015 955 987 636 732 942 1293 513
internal_value=-3.48439e-05 -0.00122984 0.000549614 -3.87654e-05 -0.00167042 -0.000628008 0.000193313 0.00122875 0.00139133 0.00148156 -0.00262317 -0.00127896 0.00181188 -0.00159644 -0.00108865 0.000328953 0.000675728 7.41062e-05 -0.00182132 -0.000224188 -0.00080912 0.00203039 7.80358e-05 5.39233e-05 -0.000302346 -0.00307947 -0.00134958 -0.00174145 0.000449076 -0.00238455 -6.24974e-05 -0.00353983 -0.000227297 -0.000814098 -0.00327628 -0.00182292 0.0011295 3.02954e-05 0.000938389 -0.0019222 -0.00029674 -0.00257183 -0.00110895 -0.00159914 -0.00231088 -0.000344038 -0.00077884 -0.000266439 -0.00400057 -0.00293901 0.000808924 -0.00188946 0.000962653 0.000554353 -0.00358646 0.0002451 0.00051573 0.000236759 0.00115497 -0.000278943
internal_weight=79093 25977 53116 28461 3541 18147 24920 24655 21155 20083 7830 6942 12262 5503 2380 22540 9964 4288 2850 11205 3816 10063 7389 12576 6612 4980 2191 1645 5964 1132 1439 3102 5455 2315 1226 4964 5676 4224 1934 1119 1072 1012 1231 4140 1878 2697 1715 1489 2090 1048 2199 1555 7821 2513 1535 3500 2310 1674 5308 1190
internal_count=79093 25977 53116 28461 3541 18147 24920 24655 21155 20083 7830 6942 12262 5503 2380 22540 9964 4288 2850 11205 3816 10063 7389 12576 6612 4980 2191 1645 5964 1132 1439 3102 5455 2315 1226 4964 5676 4224 1934 1119 1072 1012 1231 4140 1878 2697 1715 1489 2090 1048 2199 1555 7821 2513 1535 3500 2310 1674 5308 1190
is_linear=0
shrinkage=0.015


Tree=4
num_leaves=63
num_cat=0
split_feature=54 36 48 35 37 29 41 29 54 51 54 54 49 63 66 61 47 54 10 66 51 41 50 11 66 10 47 37 11 55 7 66 29 55 50 61 63 10 51 60 11 42 29 29 37 3 37 54 41 10 29 25 63 51 51 0 54 42 11 52 3 48
split_gain=223.261 105.429 66.0386 42.5141 33.6198 31.9361 24.7123 15.2501 14.5237 13.3223 13.1969 12.1447 10.6666 10.4809 9.39381 11.036 8.91151 7.9635 7.94859 10.8178 7.64738 7.52338 6.90129 6.80559 6.96106 6.69434 6.42186 6.85062 6.37361 6.58128 6.01228 5.62399 5.62361 8.10036 7.15948 5.44972 5.25604 5.2404 5.04901 5.03874 4.99409 4.97656 4.90216 4.85715 4.74685 4.70984 6.58437 4.70175 4.6472 4.61562 4.49445 4.38411 4.04934 3.9961 3.98938 3.95625 3.93748 3.84307 3.60903 3.41806 3.41058 3.37369
threshold=-1.0000000180025095e-35 0.20291206985712054 inf inf 0.021316413767635826 0.69792744517326366 0.31992809474468237 0.53807017207145702 -39.312435150146477 -1.0481483936309812 22.257744789123539 17.82630825042725 4.5000000000000009 -0.21825397014617917 9481084.0000000019 -0.055555135011672967 0.073332697153091445 333.58332824707037 0.80771368741989147 13320191.500000002 -0.42534817755222315 -0.41598011553287501 109.50000000000001 0.021494835615158085 4071354.0000000005 0.92673981189727794 0.61446633934974682 0.075556039810180678 0.11664180457592012 -0.014078618027269839 -6.2845771312713614 81613672.000000015 0.54821333289146434 -4.35040259361267 52.500000000000007 -0.45611312985420221 -0.59411767125129689 0.65570187568664562 -0.86479753255844105 -0.24417757987976071 0.03165839426219464 0.0020354998996481304 0.42088490724563604 0.3552491962909699 -0.016530372202396389 0.10350407660007478 -0.002184943412430584 11.88493061065674 -0.23731925338506696 0.54561355710029613 0.78825166821479808 -0.033505331724882119 -1.0263158082962034 -0.91371425986289967 -2.0005586147308345 -0.029898757115006443 21.939697265625004 -1.0000000180025095e-35 0.019351601600646976 -1.382058262825012 0.074305020272731795 0.0013096550246700647
decision_type=8 8 8 8 8 8 8 8 10 10 8 8 8 8 10 8 10 8 10 8 10 8 8 10 8 8 8 8 8 10 10 8 10 10 8 10 8 8 10 8 8 8 10 8 8 8 10 10 8 8 10 10 10 10 8 8 8 8 10 10 8 8
left_child=1 7 3 10 6 9 13 16 12 52 22 48 60 47 32 61 -1 55 19 41 54 -12 43 24 -23 56 27 -10 29 36 -27 -25 33 34 -9 -11 -18 -13 -35 -22 58 -8 -30 44 -2 -34 -47 -4 -6 -28 -29 -42 -3 -19 -17 -5 -15 -21 -24 -45 -7 -16
right_child=2 5 4 17 11 8 18 14 26 35 21 37 -14 25 15 20 28 53 -20 57 39 23 40 31 -26 30 49 50 42 -31 -32 -33 45 38 -36 -37 -38 -39 -40 -41 51 -43 -44 59 -46 46 -48 -49 -50 -51 -52 -53 -54 -55 -56 -57 -58 -59 -60 -61 -62 -63
leaf_value=0.0017109253020381318 0.0020986034662247347 0.000560665107997865 -0.00068057863680726018 -0.00027304264520482558 -0.00020200456253019469 -0.0030427257888056987 0.00020864125190242497 -0.0027888843473338576 -0.0013283080261624833 -0.0031160527964180802 -0.001388293295684609 -0.00077962442715050835 -0.0023103978219695806 0.0012154445206114326 0.00036456373600462859 -0.00019023392640700178 -0.0010837878392837125 -0.0016146016149406162 0.0040819068419835911 0.0021247332954077327 -0.001030190423070653 -0.0009046450048008723 0.001149814633382026 -8.7285611161141838e-05 0.00072564192374078977 0.0021379324001113784 -0.0021646491366438571 -0.0024075940766030202 1.2054520390543562e-05 0.0018365883196681915 0.00066258236998646312 -0.001456729748518297 -0.0029992316724931703 -0.00085908370476099659 -0.00044209356312252887 -0.0014495454074655812 0.00032371125441092296 0.00033829503528979849 0.0010763730067635058 0.0005378130961995203 -0.00056589131955122891 0.0022348898949346363 -0.001972854896129118 -0.00084435012687948045 0.00047165832366313223 -0.0026105508153257146 -0.00040038081612931358 0.0010556757738463625 0.001247564974018747 -0.00028821740350418553 -0.0038403533167218392 0.00094559458829563347 -0.00071591251881925944 -0.0033466054834588965 -0.0013098277417434984 -0.0018476480590959546 -0.00021384123644386916 0.0034361714055731801 0.0022898773809174973 0.00025444991269950648 -0.0045749360788804577 0.0018894721729840551
leaf_weight=866 530 854 773 906 554 511 598 554 1005 555 862 1257 1220 2780 880 1012 686 594 764 839 624 689 2301 3608 3896 3709 525 1909 584 562 757 826 514 555 622 2264 4373 3731 656 1721 592 501 530 874 1677 503 763 634 4635 674 701 1554 1594 650 2488 595 510 1444 874 2307 1287 520
leaf_count=866 530 854 773 906 554 511 598 554 1005 555 862 1257 1220 2780 880 1012 686 594 764 839 624 689 2301 3608 3896 3709 525 1909 584 562 757 826 514 555 622 2264 4373 3731 656 1721 592 501 530 874 1677 503 763 634 4635 674 701 1554 1594 650 2488 595 510 1444 874 2307 1287 520
internal_value=1.2323e-05 -0.000950859 0.000672981 0.000107697 0.00123442 -0.00198609 0.00173067 -0.000237224 -0.00259354 -0.00108093 0.000341644 0.000584783 -0.00341188 0.00129435 -0.000583868 -0.000256894 0.000283065 -0.001644 0.00269187 0.00237185 -0.000543606 -5.35758e-05 0.000706301 7.45235e-05 0.000479609 0.00151031 -0.00207719 -0.00239337 9.81126e-05 0.000303885 0.00188921 -0.000344088 -0.00115102 -0.000671941 -0.00155604 -0.00178311 0.000131677 5.57749e-05 0.000188237 0.000118628 0.0010894 0.00113964 -0.000935547 0.000327033 0.0008669 -0.00178894 -0.00128651 0.00010169 0.00109247 -0.00111666 -0.00279959 0.000527589 -0.000269724 -0.00253056 -0.000987266 -0.000902278 0.00099344 0.00296057 0.00146722 -4.78329e-05 -0.00414995 0.000936734
internal_weight=78933 32112 46821 23335 23486 13099 13309 19013 7832 5267 20590 10177 3018 9163 11412 7245 7601 2745 4146 3382 5845 9881 10709 9019 4585 7756 4814 3615 6735 5621 4466 4434 4167 2387 1176 2819 5059 4988 1211 2345 5321 1099 1114 5388 2207 1780 1266 1407 5189 1199 2610 2146 2448 1244 3500 1501 3290 2283 3175 3181 1798 1400
internal_count=78933 32112 46821 23335 23486 13099 13309 19013 7832 5267 20590 10177 3018 9163 11412 7245 7601 2745 4146 3382 5845 9881 10709 9019 4585 7756 4814 3615 6735 5621 4466 4434 4167 2387 1176 2819 5059 4988 1211 2345 5321 1099 1114 5388 2207 1780 1266 1407 5189 1199 2610 2146 2448 1244 3500 1501 3290 2283 3175 3181 1798 1400
is_linear=0
shrinkage=0.015


Tree=5
num_leaves=63
num_cat=0
split_feature=54 37 51 35 29 37 29 29 22 54 51 54 67 41 54 16 11 3 55 67 37 53 16 12 41 21 46 23 67 8 67 65 67 51 4 54 23 67 37 45 12 45 67 8 19 45 40 29 8 41 12 46 11 30 8 16 26 53 41 54 41 41
split_gain=221.427 84.6004 65.6199 36.9543 30.4759 24.8869 23.0766 18.0033 17.721 16.0323 15.3662 13.3772 12.2329 11.1924 11.033 9.32842 9.16987 14.9555 9.00965 9.94068 9.53874 10.093 8.27605 8.10537 7.49288 7.15348 7.05604 6.79741 6.65083 6.63313 6.58235 6.53891 6.41729 6.41467 6.31681 8.0592 6.2545 6.13175 5.88839 5.77211 5.48412 5.41392 5.04303 5.03752 4.95249 4.89935 4.8712 4.75249 4.64345 4.473 4.35877 4.00221 3.99187 3.75018 3.1273 3.97531 3.1127 3.10301 2.97195 2.68228 2.67722 4.44299
threshold=-1.0000000180025095e-35 1.432189464569092 inf inf 0.53807017207145702 -0.091603372246026979 0.67537367343902599 0.69792744517326366 -0.03225502930581569 17.82630825042725 -0.93154922127723683 21.939697265625004 0.0032457020133733754 0.15326209366321566 43.197826385498054 0.039192425087094314 0.022686939686536792 0.2082522660493851 -1.0281851291656492 0.0034093711292371158 -0.051304355263710015 -0.045930067077279084 0.0065633496269583711 0.95560282468795787 -0.12422648072242735 -0.013250507414340971 -0.0033652430865913625 0.053484410047531135 0.002803905052132905 -1.3546401262283323 0.00038945165579207247 3.8639556169509892 0.0008274817664641888 -2.8970692157745357 0.052713304758071906 -13.676547527313231 -0.072424910962581621 0.0022386527853086595 -0.016530372202396389 0.55965378880500805 0.19775429368019107 -2.0051134824752803 0.0019532525911927228 -2.4799941778182979 0.067719962447881712 0.24303457140922549 -0.015888236463069912 0.84436205029487621 -2.3212485313415523 0.043727507814764983 2.3857318162918095 -0.04703406244516372 0.0083466107025742548 0.042572464793920524 -2.4483865499496456 0.036638921126723296 0.00054994376841932546 0.0046373687218874702 -0.32680717110633845 9.6410870552063006 0.027316033840179447 0.0082580293528735655
decision_type=8 8 8 8 8 8 8 10 8 8 10 8 2 10 8 10 8 8 10 2 10 10 10 10 8 8 10 10 2 8 2 10 2 10 10 10 10 2 10 8 8 8 2 8 10 10 10 8 10 10 8 8 10 8 10 10 8 10 10 10 10 10
left_child=1 4 3 7 16 43 10 11 30 13 31 25 22 29 -5 -16 17 52 19 33 27 47 50 45 36 -2 -9 37 -26 -10 -7 49 56 -6 35 -24 -13 -20 -27 -23 -14 -15 53 -4 -42 -12 -17 -22 -35 -3 -8 -34 -1 -11 55 -19 -18 -53 -52 -32 61 -45
right_child=2 6 5 14 18 8 12 26 9 42 23 24 40 41 15 46 32 54 20 -21 21 39 34 -25 28 38 -28 -29 -30 -31 59 -33 51 48 -36 -37 -38 -39 -40 -41 44 -43 -44 60 -46 -47 -48 -49 -50 -51 58 57 -54 -55 -56 -57 -58 -59 -60 -61 -62 -63
leaf_value=0.0010257473833003704 -0.0003190444686291009 -0.00030816003589392437 0.00095040570025188001 -0.00021887549518766558 0.00039473719412561758 0.00078466293759982687 -0.0022398232546645773 -0.0028700127207713947 0.0012511936184986783 -0.00046100393908608952 -0.00031058660256381423 -0.00135408067549437 -0.0049394721975222133 0.0032075279439678964 -0.0010374987728275465 -0.0042343641384495643 -0.0015053732745437221 -0.0014393497222161275 -0.0010871318044347305 -0.0029156932674782123 -0.00015377384998478105 0.0011055007019121028 -0.0031178109476343073 -0.0036621013890821416 0.0004186445038607188 0.0015219315904201462 -0.00042585294614140719 -0.00028874972840048265 -0.0011697053022493424 -0.00040565479904078815 -0.0020058891161080002 -0.001582269019200441 0.0011342856148071911 -0.00092587558831868603 -0.0040338354614331455 -0.0011874263784112601 6.8174802638571805e-05 -0.0033495267731331732 0.00067155680648616259 -0.00019670363178567215 -0.0020898738225643551 0.0018110671450965125 -0.00087461567051331319 0.0023911250185922306 -0.0041404051472213165 -0.0021191588109572006 -0.0021039251802680665 -0.0013631981380680712 -0.002024607879256088 0.0014664986630684809 -0.0016086086389107104 -0.0006042928536649601 0.002628078705171029 0.000761223281571104 0.00072859596816306075 0.00026926225172743819 -0.00028091241832454359 0.00055345599333157596 -4.5460444231921771e-05 -0.00050003994552497849 0.0032184728330675442 0.00085202423577477747
leaf_weight=599 1169 847 690 933 563 545 1008 509 6323 623 516 1423 579 845 834 507 862 528 523 798 1149 1159 1243 534 6080 2630 558 598 652 591 517 544 859 2482 694 818 1352 573 6115 2232 577 2584 533 2972 529 989 502 2026 1347 506 572 1143 885 5620 828 715 1027 948 525 559 690 504
leaf_count=599 1169 847 690 933 563 545 1008 509 6323 623 516 1423 579 845 834 507 862 528 523 798 1149 1159 1243 534 6080 2630 558 598 652 591 517 544 859 2482 694 818 1352 573 6115 2232 577 2584 533 2972 529 989 502 2026 1347 506 572 1143 885 5620 828 715 1027 948 525 559 690 504
internal_value=-2.24628e-05 -0.000977426 0.000636293 7.08714e-05 -0.000445588 0.00119356 -0.00208497 0.000291102 0.00094499 0.00108695 -0.00117444 0.000395527 -0.002631 0.0014585 -0.00155158 -0.00222302 0.000263405 0.000841336 -0.000888108 -0.00137796 -0.00057949 -0.000319713 -0.00224391 -0.00207687 -6.37706e-06 0.000780891 -0.00160116 -0.00158161 0.000263835 0.00110916 -0.000551988 -0.000200756 -0.000161297 -0.00109523 -0.00278657 -0.00235711 -0.000661732 -0.00228114 0.000928196 0.000248904 -0.00373665 0.0021598 0.000518925 0.00215057 -0.00308621 -0.00150315 -0.0031915 -0.000926922 -0.00131492 0.000357385 -0.00152806 0.000275377 0.00198794 0.000638744 1.61926e-05 -0.000458177 -0.000842957 -7.86186e-05 -0.000865482 -0.00123089 0.00234761 0.00216994
internal_weight=79185 32325 46860 23264 21844 23596 10481 20488 18740 17119 3936 19421 6545 10343 2776 1843 8394 3555 13450 5190 8260 6566 4860 2039 9507 9914 1067 1694 6732 6914 1621 1897 4839 4392 2755 2061 2775 1096 8745 3391 1685 3429 6776 4856 1106 1505 1009 3175 3829 1353 2105 2950 1484 6243 2071 1243 1889 2091 1097 1076 4166 3476
internal_count=79185 32325 46860 23264 21844 23596 10481 20488 18740 17119 3936 19421 6545 10343 2776 1843 8394 3555 13450 5190 8260 6566 4860 2039 9507 9914 1067 1694 6732 6914 1621 1897 4839 4392 2755 2061 2775 1096 8745 3391 1685 3429 6776 4856 1106 1505 1009 3175 3829 1353 2105 2950 1484 6243 2071 1243 1889 2091 1097 1076 4166 3476
is_linear=0
shrinkage=0.015


Tree=6
num_leaves=63
num_cat=0
split_feature=59 37 2 24 44 59 42 66 67 59 66 37 68 24 54 10 61 62 0 10 12 43 59 14 66 67 24 59 11 64 61 38 23 14 31 54 59 30 38 54 54 64 0 43 43 52 21 10 6 59 31 62 23 6 59 31 12 31 66 6 11 62
split_gain=305.239 121.734 62.1348 38.2196 34.5384 18.4769 22.9759 22.7353 16.0663 13.966 21.8843 13.0225 12.8829 12.4291 12.3734 11.5918 11.0529 10.9697 10.299 9.57823 9.50171 9.49963 8.61623 8.17224 11.2037 7.60231 7.15269 6.60838 6.23007 6.01823 5.90943 5.61771 5.49636 5.38238 5.32144 5.31795 5.1429 5.10211 5.01956 4.95092 4.91693 4.88701 4.82572 4.79507 4.77963 4.60051 4.57954 4.48734 4.3153 4.16298 4.10147 3.97742 3.97709 3.89581 3.87431 3.80289 4.40721 3.79197 3.56282 3.45311 3.10482 3.03033
threshold=0.39159998297691351 0.76173824071884166 inf -0.12811847031116483 inf 0.042373972013592727 0.0020354998996481304 15811096.500000002 0.0031692846678197388 0.53236350417137157 21608670.000000004 0.00040746807644609367 0.20029368996620181 -0.23273431509733197 -6.0916728973388663 1.1448767185211184 0.6858925223350526 0.016845524311065677 -0.029898757115006443 0.76254114508628856 0.034508487209677703 -0.16945250332355496 0.95195153355598461 2.1835749149322514 32781712.000000004 0.0039935982786118993 -0.11538246273994444 0.31889222562313085 0.33054131269454962 0.90919664502143871 -0.21357929706573484 0.5804896652698518 -0.027395852841436859 3.6865677833557133 0.1798157021403313 -3.4238147735595699 0.98048639297485363 0.54692083597183239 0.8685801923274995 16.409887313842777 -8.1742048263549787 -0.75921079516410817 -0.12633729726076123 0.32963293790817266 -0.35364980995655054 -2.0749899148941036 -0.038159472867846482 0.36205552518367773 0.92808818817138683 0.85087165236473095 0.94474968314170849 -0.001743674336466938 0.0087207504548132437 1.0331289172172549 0.18673145025968554 0.68783602118492138 1.0123839974403384 0.33477011322975164 3966397.0000000005 1.0231271386146548 0.043991046026349075 0.071588948369026198
decision_type=2 8 8 10 8 2 8 8 2 2 10 8 8 8 10 10 8 10 8 10 8 10 2 8 8 2 10 2 8 8 10 8 8 10 10 10 2 10 10 10 10 8 8 8 10 10 10 10 10 2 8 10 8 10 2 10 8 10 8 8 8 10
left_child=2 3 11 9 8 6 7 -4 14 12 15 44 28 27 26 25 23 42 -7 39 -10 36 43 38 33 -11 48 -13 40 -26 -23 -21 -16 -25 -34 -18 -22 49 46 -20 -2 -33 -15 -6 -1 55 -5 -28 -3 -12 -41 57 61 -53 -44 56 -46 -47 -14 -30 -54 -19
right_child=1 4 5 16 22 18 -8 -9 20 10 37 13 58 17 32 -17 35 52 19 31 21 30 -24 24 29 -27 47 -29 59 -31 -32 41 34 -35 -36 -37 -38 -39 -40 50 -42 -43 54 -45 45 51 -48 -49 -50 -51 -52 53 60 -55 -56 -57 -58 -59 -60 -61 -62 -63
leaf_value=-0.0004297339648064825 -0.0012346858531030024 -0.0033554571504224762 -0.0013397446858118697 -0.00070599347597852637 -0.00046751396140989302 0.00032063578392001104 0.0037915590829965006 0.0025605164127802098 -0.0052431640522019327 -0.0016439650699152778 -0.00096410486532916035 -0.00025051954945866676 4.9578494458858452e-05 -0.0016077769046295225 -0.0022378133623074648 -5.6597306972181832e-05 -0.0023643444901097726 0.0010173901763816141 0.0013425540852258194 0.00040736449715491068 -0.003021899980114789 -0.0031129359143067703 -0.0021879571156382476 0.0010180162552488139 0.00038268785014364053 -0.0030627755206893478 -0.00033195274372467364 -0.002324924286907182 -0.00080248174641567923 0.0021375317709635458 -0.0010195831664541373 0.00058907488018059039 -0.0018225509604264079 -0.00014827337836378963 -0.00014091323851770661 -0.00024632385919836383 -0.0050700270655039056 0.00092541799358511337 0.00066867660577418114 -0.00027065699549880983 0.00035024901822517225 0.0021044364977088666 0.00092362496794899922 0.0011659770381198056 0.0015503331515367114 -0.00029123491472842514 0.0001379142232924644 -0.0022983036412116413 -0.0023629117161891042 0.00029815932467790418 0.0011843334635126799 0.0020090226734103241 0.0013320503036026491 0.00051044175656899055 -0.00041517687625320141 -0.00070847862890412552 4.1941521359097303e-05 0.0012157092306074153 0.0015773415025414803 -0.0025616917099482574 0.00023127059159423034 -0.00025439952969712166
leaf_weight=601 688 1614 502 2483 1477 1840 1744 996 504 5011 1544 673 562 617 808 893 508 613 4631 548 697 579 514 1361 632 1035 517 712 515 1477 653 525 660 2549 1174 562 509 745 1905 938 1202 6501 595 551 824 559 3449 531 2838 942 805 1787 2101 508 2557 511 924 1122 888 504 802 1319
leaf_count=601 688 1614 502 2483 1477 1840 1744 996 504 5011 1544 673 562 617 808 893 508 613 4631 548 697 579 514 1361 632 1035 517 712 515 1477 653 525 660 2549 1174 562 509 745 1905 938 1202 6501 595 551 824 559 3449 531 2838 942 805 1787 2101 508 2557 511 924 1122 888 504 802 1319
internal_value=-1.91048e-05 -0.000870031 0.00100325 -0.000327517 -0.00204211 0.0015903 0.0026225 0.00125238 -0.00240368 -0.00087506 -0.00117943 0.000338892 -0.000164047 -6.25505e-06 -0.00205743 -0.00165398 0.000205476 0.000206099 0.00137749 0.00151663 -0.00335629 -0.00295567 -0.000463338 0.000319135 0.000734564 -0.00188943 -0.0024632 -0.00132253 -0.000739732 0.00161452 -0.00201321 0.00187781 -0.0012091 0.000258089 -0.000750208 -0.0012596 -0.00390493 -0.000158831 0 0.00108609 -0.000227645 0.00199192 -0.000399986 -2.11866e-05 0.000843089 0.000966264 -0.000215371 -0.00133587 -0.00272644 -0.000485565 0.000401934 0.00127339 0.000678792 0.00167979 -0.000160915 0.000423416 0.000756241 0.000714323 0.000988438 -0.00168232 0.00102938 0.000149934
internal_weight=78936 43081 35855 29455 13626 19030 3242 1498 11084 14529 10170 16825 4359 9989 8142 6939 14926 8604 15788 13948 2942 2438 2542 13856 6019 6046 5500 1385 2909 2109 1232 7574 2642 3910 1834 1070 1206 3231 7837 6374 1890 7026 3769 2028 6836 6235 5932 1048 4452 2486 1743 3976 4835 2295 3152 2259 1748 1681 1450 1019 2903 1932
internal_count=78936 43081 35855 29455 13626 19030 3242 1498 11084 14529 10170 16825 4359 9989 8142 6939 14926 8604 15788 13948 2942 2438 2542 13856 6019 6046 5500 1385 2909 2109 1232 7574 2642 3910 1834 1070 1206 3231 7837 6374 1890 7026 3769 2028 6836 6235 5932 1048 4452 2486 1743 3976 4835 2295 3152 2259 1748 1681 1450 1019 2903 1932
is_linear=0
shrinkage=0.015


Tree=7
num_leaves=63
num_cat=0
split_feature=59 29 68 35 35 1 57 29 10 55 24 59 60 67 67 68 60 55 7 29 49 59 50 21 59 50 41 45 59 1 10 53 24 19 24 19 63 41 39 45 39 0 53 7 13 30 8 60 31 28 39 13 0 18 7 57 50 49 22 62 0 13
split_gain=303.779 110.634 54.3455 48.8744 32.9937 25.1835 17.1563 13.3699 13.0766 12.1435 11.0058 10.594 10.4431 10.0037 9.10445 9.04704 8.79648 8.6292 7.81345 7.78112 7.62472 6.89595 6.83497 6.62854 9.788 6.46912 6.2371 6.75814 6.37599 5.86568 5.68764 5.53221 5.52435 5.40515 5.29334 5.22484 5.19279 5.05059 5.00931 5.09279 4.85201 4.83651 4.58808 4.2514 3.95457 3.86423 5.18637 3.68451 3.67275 4.64146 3.64995 3.93492 3.76719 3.7328 3.59988 3.55203 3.59011 3.51951 3.5071 3.29461 3.19924 3.03178
threshold=0.37059094011783605 0.70284679532051098 inf inf inf 3.1405637264251713 6.5000000000000009 0.33085706830024725 0.77878776192665111 -7.7366764545440665 -0.13613170385360715 0.67716374993324291 0.28506843745708471 0.0059252937790006408 0.0032457020133733754 0.034763788804411895 -0.42981843650341028 -0.99557131528854359 1.2103769183158877 0.95010894536972057 3.5000000000000004 0.30929565429687506 35.500000000000007 -0.036041209474205964 0.90216654539108287 112.50000000000001 0.27664139866828924 1.984770715236664 0.025193833746016029 -1.0058140158653257 0.64089748263359081 -0.066312454640865312 -0.42731763422489161 -0.15642146021127698 -3.5633784532546993 -0.031930098310112946 0.16025641560554507 0.53009226918220531 4.9327375888824472 0.30897399783134466 5.0881609916687021 -0.02571034990251064 -0.011238145641982554 0.9977286458015443 -5295.9904785156241 0.15587044507265094 -2.618229746818542 0.022879990749061111 0.83889505267143261 27.500000000000004 5.3565430641174325 38.90977859497071 -0.032325793057680123 0.99526143074035656 0.9457228183746339 3.5000000000000004 119.50000000000001 6.5000000000000009 -0.028565308079123494 0.063069991767406478 -0.016988079994916912 -138.43314361572263
decision_type=2 8 8 8 8 8 8 8 8 10 8 2 8 2 2 10 10 8 8 8 8 2 8 10 2 10 8 8 2 8 10 10 10 8 10 10 10 10 2 10 2 10 10 8 10 8 10 10 8 10 2 8 10 10 8 10 10 8 8 8 8 10
left_child=2 4 7 9 10 38 14 42 45 13 17 -8 -10 22 15 20 18 -2 34 43 -5 50 44 24 37 54 58 -28 -29 -19 -24 -21 -23 -27 -11 -31 -20 -12 -6 -40 -16 -7 47 -18 -3 -4 -47 -1 49 -34 53 59 -53 -9 -25 -44 -57 -41 -14 -52 -60 -42
right_child=1 3 8 6 5 41 11 21 12 16 23 -13 26 -15 40 -17 19 29 36 31 -22 32 30 25 -26 33 27 28 -30 35 -32 -33 48 -35 -36 -37 -38 -39 39 57 61 -43 55 -45 -46 46 -48 -49 -50 -51 51 52 -54 -55 -56 56 -58 -59 60 -61 -62 -63
leaf_value=-0.00024157539001995942 -0.002314345084642214 -0.0014000708325596696 0.00014557255758051985 -0.0032262281862262604 -0.00089628357551333935 0.00084605754535503641 0.00013674572853607383 0.00035948481548834577 0.00042142611494556102 -0.0031917731905426057 0.00034616629337985943 -0.0025241202818029498 0.0004877903099725486 -0.0036106718104569752 -0.0052430835700724449 -0.0043425759336208174 -0.00037493346181546091 -0.0018113441666359966 -0.001091521793779322 -0.00111054879890711 -0.0017329716552144363 -0.001682478408177584 -0.0014799582509588841 0.0010211314001973585 -0.0016864191695451195 0.0002092298645012039 0.0036291894489791149 0.0032297393580253105 0.0017534653906998042 0.00057174361851032769 -0.00011833188731420076 0.00054896537841844285 -0.0005455390642343721 0.0017107091618287973 -0.0014043848268778705 -0.0005731364808321545 0.00052444941538692231 -0.00081889871769464946 -0.0013055427244855042 -0.0022765784465869467 -0.0042595323141243818 -0.00087773418799388275 0.00014393304011009976 -0.0021411316427155896 -0.003029422094757532 0.00024974587693667307 0.0014566856386586942 0.0012400837460258092 -0.00087414146755558132 0.00096836170599029199 0.00042591337956238894 -0.00069632296037253863 0.00081974009411412091 -0.00094884795878205847 0.00012717009286148046 0.0012003365323322152 0.0025583543337816426 -0.0037824310226956073 0.00068801732415975847 0.0016159667047185584 0.0018850410105831852 -0.0025716124341506963
leaf_weight=1062 534 600 1049 1325 823 1136 682 1243 1073 587 4951 657 503 545 530 619 632 500 1911 569 1910 698 2510 1280 729 802 852 892 2667 1555 956 2118 900 1668 1066 2104 579 1002 909 1361 510 534 583 600 815 1066 3287 579 1120 912 1006 753 713 803 4833 2827 524 500 556 1107 6642 534
leaf_count=1062 534 600 1049 1325 823 1136 682 1243 1073 587 4951 657 503 545 530 619 632 500 1911 569 1910 698 2510 1280 729 802 852 892 2667 1555 956 2118 900 1668 1066 2104 579 1002 909 1361 510 534 583 600 815 1066 3287 579 1120 912 1006 753 713 803 4833 2827 524 500 556 1107 6642 534
internal_value=-3.7093e-05 -0.000834965 0.00104862 -0.00166041 -0.000171793 -0.00122771 -0.00270062 0.000371093 0.00158887 -0.00113761 0.000106819 -0.00117226 0.00184378 -0.0016864 -0.00307594 -0.00267486 -0.000767252 -0.000527988 -0.00124884 -0.000256809 -0.00234908 2.12597e-05 -0.00146776 0.000302188 -5.18712e-05 0.000577872 0.00196944 0.002422 0.0021279 -0.000295762 -0.00110553 0.000195579 -0.000487873 0.0012252 -0.00204772 -8.60603e-05 -0.000714861 0.00014929 -0.00193436 -0.00224007 -0.00404548 0.000292987 0.00095104 -0.00124149 -0.00234695 0.00096529 0.00116209 0.000282471 -0.000200591 0.000216167 0.000350228 0.000638899 4.02859e-05 -0.000154331 0.000315283 0.00122883 0.00141663 -0.00269101 0.00170862 0.00105243 0.00179333 -0.00341397
internal_weight=78893 45476 33417 20255 25221 5263 6767 14830 18587 13488 19958 1339 13185 5426 5428 3854 8062 4693 4143 3919 3235 9255 4881 15265 6682 8583 12112 4411 3559 4159 3466 2687 3630 2470 1653 3659 2490 5953 3593 2770 1574 1670 5575 1232 1415 5402 4353 1641 2932 1812 5625 3579 1466 2046 6113 3934 3351 1861 7701 2113 7198 1044
internal_count=78893 45476 33417 20255 25221 5263 6767 14830 18587 13488 19958 1339 13185 5426 5428 3854 8062 4693 4143 3919 3235 9255 4881 15265 6682 8583 12112 4411 3559 4159 3466 2687 3630 2470 1653 3659 2490 5953 3593 2770 1574 1670 5575 1232 1415 5402 4353 1641 2932 1812 5625 3579 1466 2046 6113 3934 3351 1861 7701 2113 7198 1044
is_linear=0
shrinkage=0.015


Tree=8
num_leaves=63
num_cat=0
split_feature=5 35 68 37 37 29 60 41 24 55 29 20 63 51 16 29 31 41 23 10 23 27 37 12 7 27 10 10 26 51 10 20 37 20 20 64 19 51 10 38 15 48 28 12 64 41 55 20 41 29 41 10 55 37 48 55 4 15 16 51 41 37
split_gain=212.343 85.7818 75.8949 47.5049 30.3363 26.7859 19.4314 19.1433 12.771 11.7807 10.8086 10.2089 10.0872 10.0626 9.18285 8.4763 8.15329 7.13087 8.61336 6.90394 8.21486 6.86319 6.85259 6.78602 6.74714 6.56737 6.5239 6.42855 6.31599 6.18985 5.95957 5.91384 6.00452 5.78738 5.56207 5.40046 5.28953 5.95663 5.12831 4.81658 4.723 4.62665 5.19406 5.99353 5.12866 4.60768 4.55418 4.52771 4.5182 4.35525 5.57302 4.06669 3.65596 3.57924 3.46152 3.07703 2.94863 2.67309 2.55236 2.48531 2.19689 1.75578
threshold=-1.0000000180025095e-35 inf inf 0.5024879276752473 0.078033719211816802 0.68711727857589733 -0.69933399558067311 0.32729049026966101 -0.0064457976259291163 -2.1380093097686763 0.72680336236953746 1.1849145293235781 -0.16228070110082624 1.571967661380768 0.11146055161952974 0.40151001513004309 0.47087104618549352 0.6659056842327119 0.061077661812305457 0.75815224647521984 0.021144459024071697 0.047534991055727012 -0.016530372202396389 1.2784764766693117 1.0447865128517153 2.7095762491226201 0.9209076762199403 0.58968043327331554 -0.042067322880029671 -0.42534817755222315 0.19599549472332004 1.5616814494132998 0.029015409760177139 0.42951868474483496 1.7285259366035464 -0.77517086267471302 0.56866428256034862 0.022346595302224163 0.27814197540283209 -0.76854461431503285 -1.3316459655761717 0.058691957965493209 32.500000000000007 0.44973601400852209 0.85008710622787487 -0.21765086799859998 -0.13874965906143186 0.88403463363647472 -0.28259496390819544 0.66958469152450573 -0.32109011709690088 0.31793440878391271 -1.3577188253402708 0.0087513630278408545 -0.00022389544028555972 -0.58146432042121876 -0.064195651561021791 0.0082081528380513209 0.0091579230502247828 -0.68135717511177052 -0.14955364912748334 -0.0068329749628901473
decision_type=10 8 8 8 8 10 10 8 8 10 8 8 8 8 10 8 8 10 10 8 10 8 10 10 10 8 8 8 10 8 8 8 10 8 8 10 8 10 8 10 10 10 10 10 8 10 8 10 8 10 10 8 10 10 10 10 8 8 10 8 8 10
left_child=2 6 3 8 7 13 11 12 15 31 36 29 53 16 30 22 -5 21 -19 58 61 38 52 40 -24 -16 57 46 -28 49 -12 32 -8 -18 -32 51 37 55 -10 -25 -17 42 43 -11 -44 -27 -13 -31 -23 50 -2 -6 -1 56 -29 -3 -4 -14 -9 -48 -53 -21
right_child=1 10 4 5 35 -7 9 19 17 41 14 27 26 -15 25 23 33 18 -20 20 -22 48 24 39 -26 45 28 54 -30 47 34 -33 -34 -35 -36 -37 -38 -39 -40 -41 -42 -43 44 -45 -46 -47 59 -49 -50 -51 -52 60 -54 -55 -56 -57 -58 -59 -60 -61 -62 -63
leaf_value=0.00024378805225319322 -0.0007073168382117764 -0.0020538469194039261 -0.0010947569184889545 0.0010536459402907324 -0.00087427827481836959 -0.0037988563490285138 0.00023219593002929938 0.0019848262853935836 0.0016744521286446525 0.00053156153178885227 -0.0035401643336624867 -0.0012148024546252826 0.0014688110156738105 -0.0027575528171689561 -0.004818346200325653 0.00057136045261018591 -0.002134968809788332 -0.0013459258998450513 0.00090144345682604892 0.0024231945318830745 0.0042647487392330182 -0.001227998483981155 -0.00060077924910058864 -0.0022095385059717697 0.00093077163022429554 -0.0038392121829863113 0.0019169112294597818 -0.00014588303501267914 0.00046605705427758105 -0.00047954779461246901 -0.00099400197467408493 -0.001989499475489198 -0.001683894592698198 -0.00051939818350727255 -0.0026719951857218515 0.0017288687044814005 -0.00058255636152195129 -0.0029882078221558006 0.00070516207323069826 -0.00058610982347341665 -0.00066789824653444086 -0.0010762115548392324 -0.00033411634192712976 -0.00087726433067519902 0.00075847841165780586 -0.0020317513034682753 -0.0020553583965974981 0.0012787070733834675 0.00029603677024505107 -0.00012684640694735346 -0.0028328635661374153 -0.00015349287833712311 0.0019105451109618461 0.0010494072380237418 -0.0016489401477592976 -0.0006726157329598393 0.00036573006883704163 0.00069285767862648515 0.00055624442358235822 -0.0032581796901457768 0.00050047078573795998 0.001462481594103807
leaf_weight=501 601 902 589 585 661 836 959 525 1440 1112 647 777 1453 535 743 1113 640 921 650 2823 547 519 1947 822 963 719 4531 701 801 860 892 982 590 2247 908 591 660 1019 8477 834 1809 706 1298 1728 3736 615 890 527 2650 609 522 1481 733 636 680 623 647 3290 620 771 5176 549
leaf_count=501 601 902 589 585 661 836 959 525 1440 1112 647 777 1453 535 743 1113 640 921 650 2823 547 519 1947 822 963 719 4531 701 801 860 892 982 590 2247 908 591 660 1019 8477 834 1809 706 1298 1728 3736 615 890 527 2650 609 522 1481 733 636 680 623 647 3290 620 771 5176 549
internal_value=-2.16917e-05 -0.00113876 0.00052018 -1.24643e-05 0.00112334 -0.00136386 -0.000572128 0.00148016 0.000267648 -0.000182875 -0.00246073 -0.00119471 0.00115145 -0.000851363 -0.00293447 -0.00018663 -0.000553664 0.00053805 -0.000415217 0.00225345 0.00255356 0.000652721 0.000304436 -0.000631316 -9.27047e-05 -0.00367262 0.00133926 -0.00171454 0.00169988 -0.000556009 -0.00230112 -0.00108112 -0.00049973 -0.000881134 -0.00184634 0.000355255 -0.00178781 -0.00209814 0.000846832 -0.00139707 -0.000195178 8.23975e-05 0.000187088 -0.000325148 0.000476407 -0.00301776 -0.00217801 0.000189629 4.44255e-05 -0.00115281 -0.00170483 0.000243012 0.00123877 0.000138967 -0.000890344 -0.0014946 -0.000330644 0.00093218 0.00121836 -0.00262268 0.000354751 0.00226962
internal_weight=78919 25777 53142 28222 24920 4843 18049 17011 23379 11111 7728 6938 11947 4007 4524 8722 3472 14657 1571 5064 3919 13086 4144 4578 2910 2077 10075 3819 5332 3119 2447 2531 1549 2887 1800 7909 3204 2544 9917 1656 2922 8580 7874 2840 5034 1334 2438 1387 3169 1732 1123 7318 1234 1872 1381 1525 1236 4743 1145 1661 6657 3372
internal_count=78919 25777 53142 28222 24920 4843 18049 17011 23379 11111 7728 6938 11947 4007 4524 8722 3472 14657 1571 5064 3919 13086 4144 4578 2910 2077 10075 3819 5332 3119 2447 2531 1549 2887 1800 7909 3204 2544 9917 1656 2922 8580 7874 2840 5034 1334 2438 1387 3169 1732 1123 7318 1234 1872 1381 1525 1236 4743 1145 1661 6657 3372
is_linear=0
shrinkage=0.015


Tree=9
num_leaves=63
num_cat=0
split_feature=59 37 68 29 54 37 59 19 37 54 58 43 10 29 42 59 23 10 0 10 28 60 59 43 22 23 60 49 54 54 21 1 59 46 22 66 37 36 54 29 29 0 41 66 47 59 19 7 45 60 60 43 4 45 23 54 46 41 0 54 19 60
split_gain=285.075 103.214 63.0271 40.3282 30.0484 20.9417 18.6813 19.1415 13.391 12.3942 11.7123 10.6004 11.0822 10.0333 9.70233 12.0759 9.33713 8.03183 7.8914 7.2249 9.00689 8.52495 9.40673 7.0914 7.31724 6.8676 8.83477 6.84238 6.67805 6.58673 6.13097 5.94237 5.91017 5.6308 5.5719 13.9609 6.42019 5.41461 5.3936 5.25774 5.23458 5.17521 5.11453 5.09586 4.99089 4.92309 4.88068 4.70932 4.65721 4.63743 4.31723 4.28574 4.26993 6.03535 4.10254 4.04531 4.00425 3.95746 4.69036 3.94781 3.75402 3.71349
threshold=0.39159998297691351 1.432189464569092 inf 0.69792744517326366 1.8504143953323366 -1.0000000180025095e-35 0.63706475496292125 -0.48115777969360346 -0.0087672676891088468 -2.4812905788421626 0.72061017155647289 -0.51513373851776112 0.28209899365901953 0.76311486959457409 0.0017554999794811013 0.025193833746016029 -0.021416557021439072 0.68152287602424633 -0.13203413784503934 0.96393388509750377 12.500000000000002 -1.0236784815788267 0.69378978013992321 -0.20177569985389707 -0.0089081344194710237 0.12884289771318438 -0.076828803867101655 5.5000000000000009 -63.393529891967766 1.8504143953323366 -0.027349378913640972 -0.86269569396972645 0.7231464982032777 -0.018316099420189854 -0.019578263163566586 2103972.5000000005 -0.20561458170413968 0.092208933085203185 38.006116867065437 0.46055226027965551 0.33496962487697607 -0.30889083445072169 0.021750450134277347 38780822.000000007 0.12162346020340921 0.16858628392219546 -0.12819529324769971 1.0072319507598879 1.4722655415534975 -0.26339790225028986 0.0048178641591221103 0.46153889596462255 0.21380800008773806 5.3968322277069101 -0.43071952462196345 15.471960067749025 -0.012835971079766749 0.27664139866828924 -0.016988079994916912 20.610233306884769 -0.41632734239101404 0.0024153086123988037
decision_type=2 8 8 8 10 8 2 10 8 10 10 10 8 10 8 2 10 8 10 8 8 10 2 10 10 10 8 8 10 8 8 10 2 10 10 10 10 10 10 10 10 10 8 8 8 2 10 8 10 10 10 8 8 8 10 10 10 8 8 8 10 10
left_child=2 3 8 19 6 14 7 41 31 28 16 12 -8 51 34 -16 45 59 -14 21 -21 22 37 24 -11 26 -22 44 32 -19 48 40 -5 -25 35 -4 -37 -2 -6 56 -1 -3 -17 -26 -13 -10 -29 50 -23 -47 -33 -9 53 -30 -54 -44 -18 58 -31 60 -7 -32
right_child=1 4 5 9 38 17 11 13 10 23 -12 27 18 -15 15 42 39 29 -20 20 25 30 -24 33 43 -27 -28 46 52 57 61 47 -34 -35 -36 36 -38 -39 -40 -41 -42 -43 55 -45 -46 49 -48 -49 -50 -51 -52 -53 54 -55 -56 -57 -58 -59 -60 -61 -62 -63
leaf_value=0.00087415358473087051 0.00084122707302804428 0.0011960620840136657 0.002047486746584011 -0.0013535658501364163 0.00024779010445155565 -0.00032513248276888233 -0.0055140320662540035 -0.0020122694435787129 0.00091521655230595265 -0.0021294883067315431 -0.0022246960129872922 -0.0021879550456626812 -0.0043292274302363931 -0.0039229287986360462 0.0039956505949026565 0.0013761409796045764 -1.1024447059501521e-05 -0.00028855657835651018 -0.0018456430085133488 -0.00088868934054201008 0.0013727369083937401 -0.0016875471729547805 -0.0025867550080066336 -0.00061608619803752416 -0.0010767214103601052 0.0017600903955759817 -9.0692780634677537e-05 -0.00087278969779732817 -0.001207352782945184 -0.00010714389182006318 0.00050212731348419119 0.0024101490558181629 -0.0035676803306772076 0.00092109211350557732 0.0023674367006128643 -0.0012834070166404842 0.0010416703398883863 -0.0011597539386057995 -0.0012775953034788246 -0.0003607650223760662 -0.00094862630877497731 -0.00077897276739900313 0.0029156157792700854 0.00074478846859097117 -0.0034410832400375135 -0.0012808312474774724 -0.0025077225960514287 0.00070539775795517721 -1.3646562394075697e-05 -0.00020956710029911558 0.00094305810055630643 -0.00047281578720011143 -0.0013348065655169193 0.00031327426936751343 -0.0030202588642867182 0.0014104708311289728 0.0010977032119513046 0.0020303418277434 0.0013922170482926675 -0.00056429854444763126 0.0011325834983848312 -0.00011383775984400483
leaf_weight=837 526 530 1573 551 1341 540 571 2254 665 802 501 1434 520 571 1044 1270 962 513 675 874 1473 734 604 982 847 1174 2489 902 4349 517 4455 1050 555 1168 1273 556 505 707 846 1047 607 670 1799 576 1545 1169 769 1874 761 4067 814 504 955 675 506 542 3036 2033 4840 700 1467 4341
leaf_count=837 526 530 1573 551 1341 540 571 2254 665 802 501 1434 520 571 1044 1270 962 513 675 874 1473 734 604 982 847 1174 2489 902 4349 517 4455 1050 555 1168 1273 556 505 707 846 1047 607 670 1799 576 1545 1169 769 1874 761 4067 814 504 955 675 506 542 3036 2033 4840 700 1467 4341
internal_value=-2.09166e-05 -0.00084064 0.000968981 -0.000356398 -0.00195005 0.00155504 -0.00227069 -0.00152953 0.000292946 -0.00103215 6.31993e-06 -0.00279204 -0.00378711 -0.00211427 0.00210722 0.00257121 0.00010954 0.00110851 -0.00294115 8.94845e-05 0.000514581 -0.000121173 -0.00106101 -0.000395155 -0.000987956 0.000754301 0.00045405 -0.00241015 -0.00139857 0.00135005 4.68821e-05 0.000925196 -0.00247703 0.000218498 0.00155145 0.00115278 -0.000175647 -0.00030497 -0.000343161 0.000583154 0.000106265 9.34329e-05 0.002154 -0.000338337 -0.00284305 -0.000295269 -0.00163132 0.00124059 -0.000839367 -0.00045002 0.00177452 -0.00173286 -0.00121264 -0.00100264 -0.00192788 0.00257153 0.000830866 0.00146412 0.00124727 0.000401599 0.000739794 0.000198074
internal_weight=79037 43236 35801 30104 13132 19172 10945 4529 16629 11966 11447 6416 1766 3329 8562 4655 10946 10610 1195 18138 6010 12128 1837 4375 2225 5136 3962 4650 7591 7903 10291 5182 1106 2150 3907 2634 1061 1233 2187 5045 1444 1200 3611 1423 2979 5901 1671 3738 1495 5236 1864 2758 6485 5024 1461 2341 3998 7390 5357 2707 2007 8796
internal_count=79037 43236 35801 30104 13132 19172 10945 4529 16629 11966 11447 6416 1766 3329 8562 4655 10946 10610 1195 18138 6010 12128 1837 4375 2225 5136 3962 4650 7591 7903 10291 5182 1106 2150 3907 2634 1061 1233 2187 5045 1444 1200 3611 1423 2979 5901 1671 3738 1495 5236 1864 2758 6485 5024 1461 2341 3998 7390 5357 2707 2007 8796
is_linear=0
shrinkage=0.015


Tree=10
num_leaves=61
num_cat=0
split_feature=37 48 48 29 24 22 43 50 37 43 66 8 29 29 24 11 38 29 37 14 16 6 29 63 43 22 37 7 43 19 22 21 50 55 38 49 43 29 55 22 7 12 8 43 46 43 4 29 14 29 63 4 50 37 18 11 55 66 29 43
split_gain=201.234 108.762 87.1619 52.3442 33.7523 19.3696 14.5572 16.7366 14.0582 10.0623 9.9092 11.7605 9.83552 8.73476 11.376 8.49048 7.73348 7.60906 7.52447 7.51947 7.22726 10.5642 7.9514 7.11681 7.41326 7.05492 6.83959 6.36768 6.34411 6.30741 6.28975 8.25547 8.0116 6.16497 5.55297 4.91707 4.84167 5.35613 4.51909 4.50222 4.38103 4.28882 4.09731 4.06589 3.99973 3.91998 3.90738 3.74684 3.36542 4.54576 3.24995 2.97033 2.94697 2.37418 2.20502 2.09941 1.74645 1.28779 1.19617 0.224719
threshold=inf inf 1.0329461693763735 0.5970042645931245 -0.23273431509733197 -0.026442090049386021 -0.39368139207363123 57.500000000000007 0.014519437681883575 -0.49417965114116663 23489606.000000004 21.127448081970218 0.53158706426620495 0.70284679532051098 -0.055465890094637864 0.57295939326286327 13.553738594055178 0.68087959289550792 -0.01470944471657276 -10.036741733551024 0.076423317193984999 0.88486865162849437 0.70284679532051098 -0.22649572789669034 0.023185953497886661 -0.66397675871849049 -0.051304355263710015 1.081276059150696 -0.01105851214379072 -0.2866919338703155 0.0085895322263240832 -0.044401578605175011 102.50000000000001 -1.2682085633277891 -2.2612028121948238 1.5000000000000002 0.281250610947609 0.26947999000549322 -1.8764731884002683 -0.021386970765888687 1.0165143609046938 0.49121694266796118 -2.7631319761276241 -0.15818210691213605 0.028860158286988739 0.37654168903827673 -0.13327250629663465 0.25089986622333532 14.676345825195314 0.38830840587615972 0.11437908560037614 -0.017744919285178181 88.500000000000014 -0.51002132892608631 2.1594456434249882 0.028031501919031147 -0.035831028595566743 9346172.0000000019 0.21480841189622882 0.019801913760602478
decision_type=8 8 8 8 10 8 10 8 10 8 8 8 10 10 10 10 8 8 10 10 10 10 8 10 10 10 10 8 8 10 10 8 10 10 10 10 10 10 10 10 10 8 10 8 8 10 10 8 8 8 8 10 8 10 8 8 8 8 10 10
left_child=1 3 4 15 9 28 7 46 10 54 23 47 42 14 25 18 39 36 19 44 21 -11 -22 24 -7 -8 -15 -24 57 52 32 -32 -20 -28 -23 -16 37 58 -14 -9 -21 -25 -6 -19 -1 55 -5 -12 49 -44 -45 -18 -10 -13 -2 -31 -39 -3 -4 -52
right_child=2 5 17 6 12 8 13 16 29 20 11 53 38 26 35 -17 51 43 30 40 22 34 27 41 -26 -27 33 -29 -30 45 31 -33 -34 -35 -36 -37 -38 56 -40 -41 -42 -43 48 50 -46 -47 -48 -49 -50 -51 59 -53 -54 -55 -56 -57 -58 -59 -60 -61
leaf_value=0.00039982035907154464 -0.0049590205647825104 -0.00041241099295304617 0.00049995304369321173 -0.0038133524160238511 -0.0017226906211709782 0.00043070048952738288 0.00045047701264177946 -0.0027488967462900209 -0.00048570211222757063 -0.0033766337299863062 0.0023306954816241913 0.0033414355585409485 -0.0033246607554096429 -0.0024310604628149063 -0.0005078202372810007 -0.0012202066892616087 0.0004740990887893041 -0.0015760162375675945 -0.00015321235682930412 0.0013470340385930589 -0.0018843414881757233 -0.00089588717335069203 -0.0045233958062185697 0.0024932755497112523 0.0017503012554693105 -0.00084840521852503671 -0.0017774134941779898 -0.00291403237441478 0.00080914641042087324 3.3049553744427158e-05 -0.00065750063436517767 0.001254604072471 0.00066494093077895666 -0.00032296300052667181 -0.0025428404237050955 0.00095341832993599968 0.0018218936356157434 -0.0010869149842549768 -0.0014467477326999762 -0.0010212417834002505 0.00053068239303143095 0.0014474217160658867 0.00038089662789343259 -0.0011112852037736631 -0.001237720219199206 0.0023254920616306895 -0.0021503072311273882 0.00088130611559591933 0.0006883151183821113 -0.0012873826302198131 0.00035451533598521086 -0.00091347818672426638 0.00087085952687166704 0.0022496985158596476 -0.0034417510927154307 0.0010634373480500183 1.1033189060467976e-05 -0.0014624549423239844 0.0014635080377287325 -2.579016501788072e-05
leaf_weight=937 527 514 596 568 592 2472 1176 502 999 971 616 1590 511 682 687 748 892 681 9604 3651 892 1342 963 1461 1568 4622 945 1453 781 504 645 2327 3736 2138 708 2057 521 503 697 1076 2514 2346 580 647 516 520 805 1183 552 984 722 561 557 710 503 4018 902 556 587 659
leaf_count=937 527 514 596 568 592 2472 1176 502 999 971 616 1590 511 682 687 748 892 681 9604 3651 892 1342 963 1461 1568 4622 945 1453 781 504 645 2327 3736 2138 708 2057 521 503 697 1076 2514 2346 580 647 516 520 805 1183 552 984 722 561 557 710 503 4018 902 556 587 659
internal_value=-4.76949e-05 0.000350814 -0.00148791 -9.09632e-05 -0.00225706 0.00124722 -0.000739114 -0.00147896 0.00139324 -0.00285579 0.00170037 0.00229946 -0.00112933 -0.00047375 -0.00020797 0.00034794 -0.000853397 3.08119e-06 0.000397264 0.000786413 -0.00262716 -0.00208804 -0.00311517 0.00138597 0.000944764 -0.000584535 -0.00107528 -0.00356415 -0.000214703 0.000836088 0.000215247 0.000838717 7.59705e-05 -0.000771422 -0.00147022 0.000586772 0.000509325 0.000241505 -0.0022528 -0.00157874 0.00101508 0.00185192 -0.000624383 -0.000577228 -0.000182937 0.0010935 -0.00285073 0.00138351 -0.000313062 -0.000668513 -0.000238047 -6.19079e-05 1.78176e-07 0.00301068 -0.00423972 0.00094909 -0.000383437 -0.000963701 0.000983475 0.000172517
internal_weight=78877 61784 17093 41389 11275 20395 16711 4404 18544 7359 11946 4099 3916 12307 8542 24678 3031 5818 23930 7618 6329 3021 3308 7847 4040 5798 3765 2416 1851 6598 16312 2972 13340 3083 2050 2744 3109 2588 1208 1578 6165 3807 2708 2709 1453 5042 1373 1799 2116 1564 2028 1453 1556 2300 1030 4522 1405 1070 1183 1381
internal_count=78877 61784 17093 41389 11275 20395 16711 4404 18544 7359 11946 4099 3916 12307 8542 24678 3031 5818 23930 7618 6329 3021 3308 7847 4040 5798 3765 2416 1851 6598 16312 2972 13340 3083 2050 2744 3109 2588 1208 1578 6165 3807 2708 2709 1453 5042 1373 1799 2116 1564 2028 1453 1556 2300 1030 4522 1405 1070 1183 1381
is_linear=0
shrinkage=0.015


Tree=11
num_leaves=63
num_cat=0
split_feature=2 37 29 37 24 47 27 29 29 42 42 67 50 8 29 47 43 29 50 50 16 43 37 55 17 28 27 52 43 3 52 43 15 55 43 2 19 3 43 42 3 12 53 12 37 8 56 42 27 3 41 29 42 43 42 19 67 15 16 47 4 17
split_gain=197.134 166.66 60.0691 30.5837 24.6489 19.0136 11.7561 11.3965 11.1198 9.9372 10.5851 9.36533 9.19832 9.49505 9.04808 8.94288 8.19454 7.50468 7.30627 6.62986 6.20049 6.00577 7.41253 5.90059 7.94331 6.46488 7.4295 6.25317 5.85519 6.32404 5.83562 5.65982 5.40575 5.37709 6.62801 6.37659 5.3373 5.30663 5.21771 4.87807 4.78871 4.7448 6.83902 4.58489 4.57712 4.57568 4.42075 4.31868 3.88776 3.84781 3.67722 3.58498 3.35572 3.15006 3.13512 2.97102 3.26139 2.91179 2.73235 2.50082 2.29465 2.21245
threshold=inf inf 0.6016623079776765 0.18471901118755343 -0.23273431509733197 0.073332697153091445 0.039770752191543586 0.53158706426620495 0.40151001513004309 0.0020354998996481304 0.035091498866677291 0.0056433950085192927 49.500000000000007 -1.2747034430503843 1.1031856536865237 0.84249547123909008 -0.35364980995655054 0.34438763558864599 38.500000000000007 102.50000000000001 0.018201974220573906 -0.23133367300033567 -0.021871056407690045 -0.71420273184776295 -0.018139041960239407 12.500000000000002 0.079324066638946547 -3.5432779788970943 -0.14716558158397672 0.05258836783468724 1.645614802837372 0.10046785697340967 -0.9810560643672942 -1.0281851291656492 -0.41562157869338984 1.4683304429054262 0.21934719383716586 0.2082522660493851 -0.13636443763971326 -0.04316549934446811 0.11952772364020349 0.30114381015300756 -0.016807935200631615 0.45592691004276281 -0.00040210541919805104 -2.814362525939941 2.0050421953201298 1.0000000180025095e-35 0.036428948864340789 1.5047169923782351 -0.10724692419171332 0.79639935493469249 0.086302500218153014 0.016721499152481559 0.0086004999466240423 -0.45935766398906702 0.0012657688930630686 0.45301118493080145 0.51147145032882702 0.093886576592922225 0.048260737210512168 -0.057092159986495965
decision_type=8 8 8 8 10 10 8 10 10 8 10 2 8 8 10 10 8 8 8 10 10 10 10 10 10 10 10 8 8 10 8 10 10 10 8 10 10 8 8 10 10 8 8 8 10 10 8 10 8 8 10 8 10 10 8 10 2 8 8 10 8 10
left_child=1 2 8 5 14 9 16 38 19 12 53 15 13 -2 20 18 -4 57 -8 21 37 49 -23 24 47 -25 -27 -26 51 61 -13 40 -17 34 -22 -35 -12 50 -6 -14 55 -18 -43 -40 -33 -21 -47 -10 -9 -1 -3 -19 58 -11 -55 -7 -57 -5 -46 -39 -45 -30
right_child=3 4 6 17 7 31 11 48 23 10 36 30 39 -15 -16 32 41 28 -20 45 33 22 -24 25 27 26 -28 -29 29 -31 -32 44 -34 35 -36 -37 -38 59 43 -41 -42 42 -44 60 52 46 -48 -49 -50 -51 -52 -53 -54 54 -56 56 -58 -59 -60 -61 -62 -63
leaf_value=-0.0011641995177087358 0.0016310303269501834 -0.00079374772704344382 -0.0014438048897674276 0.0018031259564318543 -0.001515182604908346 -0.00018902336138535566 -0.0019796461591601437 -0.0014115390665232468 -0.00032929564084735246 0.003356545399174779 0.0002970919140543206 -0.0013347011356592421 0.00065985691309618829 -0.0012136572465311112 -0.0043989380900331023 0.0010677520468899931 0.0010900220562995078 -0.00014866620882622938 -0.00090014016152437201 -7.6525416315698444e-05 -0.0048535728487567381 0.0014160297463572124 0.00032203097365343653 -0.0011517172850800672 0.00023276415960182513 0.00012945531827332198 0.0014169589621340745 -0.0013535809665044481 0.00024561123776722026 -0.0012741350872890243 -0.003413873935504358 0.0022023653628279816 -0.00075310508676095737 -0.00085127306424531246 -0.0029177110454048191 -0.0029197432599756073 0.0023513786135076114 -0.0033855204567616363 -0.0010949826233515854 0.0022188063335137438 -0.00039999934283895986 -0.0015230938734204853 0.00023448780954717129 -0.00023749705948175544 0.0018852947723483021 0.0022828964809310632 0.0010261763245298355 0.0015569381496837635 -0.0031575575215667773 0.00042918067103079195 -0.0023380955045600822 -0.0017957874930971997 2.5300225134782048e-05 0.0014792506699230123 0.0030570977699832125 0.00083894981820238981 0.0020956353880663622 0.00057691418516195921 0.00064891557946489351 -0.0019272558369679053 0.0011913313442790457 0.001333146963521208
leaf_weight=822 506 967 922 575 1057 567 1735 512 554 1676 641 669 606 541 644 732 882 544 7678 615 508 1762 6648 680 768 5174 1249 2023 2467 579 574 1207 725 550 2168 887 512 614 708 1870 764 641 2169 501 991 827 2728 529 704 575 548 659 547 566 613 5866 505 1818 695 526 500 505
leaf_count=822 506 967 922 575 1057 567 1735 512 554 1676 641 669 606 541 644 732 882 544 7678 615 508 1762 6648 680 768 5174 1249 2023 2467 579 574 1207 725 550 2168 887 512 614 708 1870 764 641 2169 501 991 827 2728 529 704 575 548 659 547 566 613 5866 505 1818 695 526 500 505
internal_value=-4.89382e-05 -0.000571921 -0.000132319 0.00102594 -0.00217916 0.00134527 -0.000827732 -0.00122432 0.000333838 0.0019277 0.00243954 -0.00107311 0.00134233 0.000160931 -0.00269076 -0.000931006 -0.000182767 0.000191061 -0.00110022 0.000614375 -0.00252487 0.000400757 0.000552121 -2.33489e-05 -0.000494021 0.000233313 0.000380961 -0.000916894 -0.000153616 0.000152689 -0.00230587 0.000950772 0.000161195 -0.00289253 -0.00329413 -0.00213479 0.00121683 -0.00195038 -0.000689245 0.00183996 0.000723631 0.000133272 -0.000167901 -0.000174605 0.00145711 0.00111532 0.00132174 0.000593593 -0.00243241 -0.000508109 -0.0013592 -0.00105589 0.00104958 0.00292982 0.00231034 0.000847779 0.000940362 0.000875324 0.00137995 -0.00272534 0.000477086 0.000432837
internal_weight=78895 53075 41681 25820 11394 18673 16727 3982 24954 7531 4008 12113 3523 1047 7412 10870 4614 7147 9413 13977 6768 9807 8410 10977 3874 7103 6423 2791 4754 3551 1243 11142 1457 4113 2676 1437 1153 2655 2766 2476 7702 3692 2810 1709 3440 4170 3555 1083 1216 1397 1515 1203 2233 2855 1179 6938 6371 2393 1686 1140 1001 2972
internal_count=78895 53075 41681 25820 11394 18673 16727 3982 24954 7531 4008 12113 3523 1047 7412 10870 4614 7147 9413 13977 6768 9807 8410 10977 3874 7103 6423 2791 4754 3551 1243 11142 1457 4113 2676 1437 1153 2655 2766 2476 7702 3692 2810 1709 3440 4170 3555 1083 1216 1397 1515 1203 2233 2855 1179 6938 6371 2393 1686 1140 1001 2972
is_linear=0
shrinkage=0.015


Tree=12
num_leaves=62
num_cat=0
split_feature=54 36 2 36 57 42 54 24 16 54 42 54 41 24 2 47 20 6 41 51 21 36 36 36 6 9 41 46 21 9 36 6 26 54 4 42 42 40 58 19 4 16 24 14 58 41 36 41 21 16 9 8 9 44 65 30 8 8 25 4 36
split_gain=221.107 81.8914 62.5923 42.0795 26.7171 14.6829 14.1539 12.9319 11.821 9.87745 10.2365 9.7626 9.307 8.94887 8.75485 10.5846 9.58282 8.77855 8.71229 7.89636 7.59798 6.79984 6.72444 6.54804 6.4948 6.39513 6.29176 6.1719 6.05407 6.01246 5.96261 5.85628 5.8072 5.65018 5.38829 5.16468 5.13518 4.92986 4.81539 4.78765 4.50232 4.28724 4.24117 4.20847 4.21775 4.0508 4.03112 3.99097 3.62203 3.50377 5.90183 4.28 3.23665 3.04868 2.99188 2.92628 3.36076 2.7165 2.43995 1.74898 1.72987
threshold=-1.0000000180025095e-35 0.34388343989849096 inf 0.033487465232610709 5.5000000000000009 -0.058811999857425683 22.257744789123539 -0.29687905311584467 0.071988437324762358 17.82630825042725 0.13922800123691562 275.12500000000006 1.750925660133362 -0.15542171895503995 19.996395111083988 -0.039604883641004555 1.1973164081573489 0.89048516750335704 0.28346550464630133 0.52182376384735119 -0.03312218934297561 0.58841374516487133 0.072992369532585158 0.083141811192035689 1.2681148648262026 1.1523079276084902 0.4899237602949143 0.0116704641841352 0.010860958136618139 0.97468280792236339 0.092208933085203185 0.88486865162849437 0.018335515633225444 -39.312435150146477 -0.058102026581764214 -0.013917999807745217 0.047640999779105193 0.013904296793043615 0.0055091329850256452 0.34457635879516607 -0.015122927725315092 0.91112738847732555 -0.13202941417694089 24.102543830871586 0.055213090032339103 0.049802856519818313 0.12680339068174365 0.055790115147829063 -0.025786354206502434 0.050338800996541984 1.1568145155906679 -2.5347635746002193 0.87742710113525402 2.5000000000000004 -3.9727221727371211 0.026671408675611023 -2.6505552530288692 -2.4543297290801998 0.045334748923778541 -0.010291625279933212 0.12012342363595964
decision_type=8 8 8 10 8 10 8 10 10 10 10 8 8 8 8 8 8 10 8 8 8 8 10 10 10 8 10 8 8 8 10 10 10 10 8 10 8 8 8 8 10 8 8 8 8 8 10 10 10 8 8 10 10 8 8 8 10 10 8 8 8
left_child=1 7 3 11 8 28 20 14 31 10 18 54 26 30 15 16 52 19 34 -17 -5 -20 -19 38 32 27 37 39 59 40 -8 35 -22 -6 -7 -3 -31 -10 -9 -25 -15 -18 -13 44 -40 -35 47 53 -29 51 -51 -33 -1 -30 -2 -11 -57 -58 -27 -4 -49
right_child=2 4 5 6 33 9 13 23 12 55 -12 42 -14 29 -16 17 41 22 21 -21 24 -23 -24 25 -26 58 -28 48 46 36 -32 49 -34 45 -36 -37 -38 -39 43 -41 -42 -43 -44 -45 -46 -47 -48 60 -50 50 -52 -53 -54 -55 -56 56 57 -59 -60 -61 -62
leaf_value=0.00016117716670605356 -0.00013214714903525025 -0.0036502522577314561 0.0018367741959771614 -0.00066375525077801655 -0.0017449740504229335 0.00029826180929861339 -0.00039772510392977828 -0.00098208249756902418 -0.0020954117138952517 -0.00030922207894819922 4.1568991730890031e-06 -0.0035320859588939633 -0.0045723300175664486 -0.0010711482716328142 0.00056225361422707022 -0.0025646794811792824 -0.0018217035099506325 0.00010876290485783317 0.0023221447218336657 -0.0004209200824224632 0.00078443736521906801 0.00061401453244328582 -0.0011782903412802658 -0.0010834964393081155 -0.00077213903813073709 -0.00078907679895580168 -0.0011899431946976206 -0.00023942065707800229 -0.0016061595597711856 0.00060133617824988518 -0.002552833794729357 -0.0029469681370242464 0.0021091246388527146 -0.00062171224071722281 0.0014682778062151552 -0.0016597851463872691 -0.00030676977716477045 -0.0033568093444436842 0.0014877251299670788 0.00044670394490414479 0.00023605887927974646 0 -0.0018163641865598038 0.001405695162868581 4.1090698493830363e-05 0.0010103171933274245 0.0012035964217866847 0.0010676883604045415 0.0011755518485802234 -0.00012072115166734796 -0.0019293384000491536 -0.0013455068753248508 0.0018565246414353929 -0.00018674721951128517 -0.0014433177764193697 5.8333503524913854e-05 0.0015411152365568739 0.00050077368680684245 -0.0022164698173702986 0.00070324225219339819 -0.00014201136832822723
leaf_weight=504 790 660 582 853 581 1003 683 617 1116 582 943 559 692 1507 921 1605 616 1151 4452 514 8362 602 4366 1772 547 563 569 765 583 4361 501 660 817 890 7986 558 2057 2083 514 616 970 546 835 807 3614 549 508 504 858 817 807 914 511 819 779 903 1451 942 536 675 551
leaf_count=504 790 660 582 853 581 1003 683 617 1116 582 943 559 692 1507 921 1605 616 1151 4452 514 8362 602 4366 1772 547 563 569 765 583 4361 501 660 817 890 7986 558 2057 2083 514 616 970 546 835 807 3614 549 508 504 858 817 807 914 511 819 779 903 1451 942 536 675 551
internal_value=-5.01848e-05 -0.0010045 0.000609612 6.66423e-05 -0.00206276 0.00116496 0.000306584 -0.000465156 -0.002417 0.00134393 0.00151865 -0.00160342 -0.00296359 -9.55388e-05 -0.00083258 -0.000963864 -4.0354e-05 -0.00122676 0.00162021 -0.00204759 0.000689708 0.00211979 -0.000909648 -9.48929e-05 0.000808845 -0.000482234 -0.00266207 -0.000203268 0.000364332 6.76355e-05 -0.0013178 -0.00186191 0.000903592 -0.000503344 0.00133813 -0.0027501 0.000310038 -0.00292118 0.000261455 -0.000688036 -0.000559194 -0.000969202 -0.00251561 0.000418069 0.000223164 1.23495e-06 -5.50893e-06 -0.000258045 0.000508997 -0.00151939 -0.00102355 -0.00202518 0.00102108 -0.000781664 -0.000786606 0.00066728 0.000840371 0.00113411 -0.00149348 0.00123446 0.000436788
internal_weight=78999 32292 46707 23621 10896 23086 20658 21396 8876 18864 14986 2963 4460 10079 10734 9813 2177 7636 14043 2119 10579 5054 5517 10662 9726 5110 3768 4011 4222 8895 1184 4416 9179 2020 8989 1218 6418 3199 5552 2388 2477 1162 1394 4935 4128 1439 2965 2457 1623 3198 1624 1574 1015 1402 1569 3878 3296 2393 1099 1257 1055
internal_count=78999 32292 46707 23621 10896 23086 20658 21396 8876 18864 14986 2963 4460 10079 10734 9813 2177 7636 14043 2119 10579 5054 5517 10662 9726 5110 3768 4011 4222 8895 1184 4416 9179 2020 8989 1218 6418 3199 5552 2388 2477 1162 1394 4935 4128 1439 2965 2457 1623 3198 1624 1574 1015 1402 1569 3878 3296 2393 1099 1257 1055
is_linear=0
shrinkage=0.015


Tree=13
num_leaves=63
num_cat=0
split_feature=59 35 48 25 8 59 66 59 42 66 24 65 24 15 42 18 10 41 24 41 16 18 14 67 15 58 42 66 66 46 18 66 66 65 15 5 18 47 12 3 48 60 61 23 24 25 61 42 65 48 46 16 48 10 59 59 12 8 41 15 58 48
split_gain=264.831 101.355 55.0574 31.1836 30.7164 21.3644 22.6176 14.7847 17.863 23.1411 13.7711 12.8631 12.0888 9.48359 9.30453 9.15565 8.92903 18.1202 8.28811 7.83975 7.72689 7.59491 7.5863 7.42905 7.33259 7.10052 8.37059 7.00259 6.99697 6.73406 6.52456 5.3423 5.26912 5.17722 5.00596 4.95211 4.76754 4.67974 5.27442 4.67805 4.64631 5.71498 4.89042 4.53458 4.88757 4.73478 4.66719 4.45814 4.42309 4.35528 4.17974 4.11733 3.83777 3.60698 6.76834 3.58553 6.82515 3.21635 3.21604 3.085 3.08179 7.48831
threshold=0.38918617367744451 inf -0.69721406698226918 -0.20157141238451001 -15.549112796783445 0.53236350417137157 19496070.000000004 0.038409728556871421 0.0020354998996481304 16193153.000000002 -0.045782215893268578 -1.727032423019409 -0.23273431509733197 2.5408974885940556 -0.047238500788807862 1.6130384802818301 0.83059158921241771 0.29781070351600653 0.010005315300077202 -0.64297339320182789 0.075011581182479872 1.0381381511688235 -36.486968994140618 0.0059252937790006408 0.14460498094558719 0.37966442108154302 0.25977200269699102 36950802.000000007 5187724.5000000009 -0.0067666121758520595 0.83813905715942394 6073863.5000000009 11406511.500000002 1.6625115275382998 1.3906973600387575 -6.4999999999999991 1.0763177275657656 0.44199790060520178 0.41927561163902288 0.044377513229846961 0.0041869699489325294 0.28506843745708471 0.17874765396118167 -0.014011721126735209 0.073827192187309279 0.035953655838966377 0.02112454175949097 -0.10503000020980834 -2.9932652711868282 0.0019455783767625692 0.048262255266308791 0.094550020992755904 0.009303307160735132 0.36649271845817571 0.71124944090843212 0.31178432703018194 1.7170411944389345 -2.4808071851730342 -0.45746611058712 0.88399422168731701 0.79394400119781505 0.011556451674550773
decision_type=2 8 10 10 10 2 10 2 8 8 10 8 10 10 8 8 10 10 10 8 10 10 10 2 10 8 8 8 10 10 8 10 10 10 8 8 8 10 10 8 8 10 10 10 10 10 10 10 10 10 8 10 8 10 2 2 8 10 8 10 10 8
left_child=2 3 7 5 53 11 19 8 9 -1 14 -2 20 47 31 57 -17 34 25 -7 39 22 -22 -21 -8 29 30 40 49 51 -27 -4 -30 48 -18 -31 -34 -29 -39 -6 41 -20 -42 46 -45 -46 -15 -12 52 50 -16 -5 -14 54 -3 56 -49 -9 -41 -57 61 -13
right_child=1 4 10 18 12 6 24 15 -10 -11 13 60 33 43 28 16 17 -19 27 23 21 -23 -24 -25 -26 26 -28 37 32 35 -32 -33 36 -35 -36 -37 -38 38 -40 58 42 -43 -44 44 45 -47 -48 55 -50 -51 -52 -53 -54 -55 -56 59 -58 -59 -60 -61 -62 -63
leaf_value=-0.0013981845917490621 0.0015545910483186732 -0.00023984450439607223 -0.002181215961960577 7.6538676694421504e-05 -0.00097360096643819448 -0.0037381753989103234 0.00079029375757154203 -0.00032626091199116302 0.0034451964686010189 0.0025617503721240224 -0.00013579588719265189 -0.0021071821309104457 -0.00099697347666186792 -0.0013385998167386279 0.00081373161472832005 0.0010915723233360668 0.0017965528428053603 0.0038121194791574365 -0.0001337718481603177 -0.0016168735601415501 -0.0033920626285876675 -0.0044761988450991337 -0.0015763250956165732 -0.0035455984412993799 -0.0010153129262649621 -0.001943693644970274 0.0010604407746004668 0.0017893585866460228 -0.0016879047211296478 0.0018476755085891784 -0.0006086390403731405 -0.00043164965726521473 -0.0009580456055332296 -0.0027002211684807758 0.00071503139339762435 0.00025877307799447862 0.00076872515269396787 0.0013626651675431669 -0.00013235324859165048 -0.0015445254495207923 0.00078379053673033805 -0.0018293651927148737 -0.00049219460067511896 -0.00065993783642192064 0.0021646458112921673 0.000158273923928938 0.00018950757029415991 0.0016107799114346475 -4.5502903513132338e-05 0.0011889760342475221 -0.00095376751219795831 -0.001138460856838506 -0.0026389123537750988 7.3581147217364546e-05 -0.0022683929971493511 0.0011156267159566958 -0.00021267684110854235 0.00087046198290645523 -0.0028263540703591882 6.8600578385302337e-07 0.00039361231875175367 -0.00011409764423449876
leaf_weight=508 839 924 757 1298 558 541 958 914 1696 938 772 702 854 870 602 8193 3516 904 2723 4239 1748 904 760 505 1061 991 570 864 658 533 4869 822 694 681 1346 2490 736 898 1283 614 2200 531 969 504 508 552 920 3261 560 1307 592 1205 523 1073 616 1189 535 1116 1850 1054 525 1066
leaf_count=508 839 924 757 1298 558 541 958 914 1696 938 772 702 854 870 602 8193 3516 904 2723 4239 1748 904 760 505 1061 991 570 864 658 533 4869 822 694 681 1346 2490 736 898 1283 614 2200 531 969 504 508 552 920 3261 560 1307 592 1205 523 1073 616 1189 535 1116 1850 1054 525 1066
internal_value=-4.77234e-05 -0.0008317 0.000914391 -0.000393513 -0.00202769 -0.00106569 -0.00150986 0.0014604 0.00240189 0.00116951 0.000274498 -2.86219e-05 -0.00244114 0.000613713 -0.000284338 0.00127461 0.00141149 0.00186448 -6.58422e-05 -0.00202539 -0.00279168 -0.00328476 -0.00284667 -0.00182602 -0.000157989 -0.000328383 -0.000667082 0.000265529 5.74321e-05 6.56989e-05 -0.000836134 -0.00127561 -0.000582479 -0.00157541 0.00149849 0.000542004 -6.86749e-05 0.000857367 0.000484225 -0.00222996 -1.52627e-05 -0.000413308 0.000392993 -3.87814e-05 0.000549849 0.00112688 -0.000554028 0.00093504 -0.00117325 0.000592367 -6.16882e-05 -0.000508895 -0.00162898 -0.000592883 -0.00105695 0.00107218 0.00135345 0.000331427 -0.00251132 0.000593543 -0.000610688 -0.000910026
internal_weight=78989 43525 35464 31860 11665 10436 7304 19131 3142 1446 16333 3132 9052 10165 6168 15989 13959 5766 21424 5285 6434 3412 2508 4744 2019 11956 6430 9468 4589 5526 5860 1579 2088 2618 4862 3023 1430 3045 2181 3022 6423 3254 3169 3354 1564 1060 1790 6811 1937 2501 1194 2503 1377 2613 1540 6039 3796 2030 2464 2243 2293 1768
internal_count=78989 43525 35464 31860 11665 10436 7304 19131 3142 1446 16333 3132 9052 10165 6168 15989 13959 5766 21424 5285 6434 3412 2508 4744 2019 11956 6430 9468 4589 5526 5860 1579 2088 2618 4862 3023 1430 3045 2181 3022 6423 3254 3169 3354 1564 1060 1790 6811 1937 2501 1194 2503 1377 2613 1540 6039 3796 2030 2464 2243 2293 1768
is_linear=0
shrinkage=0.015


Tree=14
num_leaves=63
num_cat=0
split_feature=54 37 68 37 37 29 17 43 29 29 56 67 54 43 54 42 7 5 46 55 23 42 10 66 23 42 43 66 26 36 42 67 29 17 26 68 31 29 65 67 7 64 7 10 43 37 66 45 52 54 10 1 46 55 42 23 7 45 10 55 58 10
split_gain=201.477 86.2098 55.9081 38.4565 26.0339 25.1777 24.2203 13.768 13.6088 12.9031 10.8846 10.7542 10.4069 8.98673 8.86914 9.5798 8.44907 7.39903 7.3517 7.27791 7.60422 7.1654 8.31341 12.9266 6.97208 6.78126 6.77272 6.76737 6.8141 6.40049 5.99066 5.93688 7.50764 5.99126 5.64433 5.57733 5.44833 5.27743 5.17903 5.50533 5.06284 4.99916 4.94149 4.82619 4.76861 5.89054 5.0641 6.96471 4.61477 4.54701 4.15486 4.09263 3.98252 3.86118 3.69434 3.54737 3.46411 3.35896 3.14429 3.04226 2.95349 2.84915
threshold=-1.0000000180025095e-35 1.432189464569092 inf -0.99949195981025685 0.022546869702637199 0.53807017207145702 46.512548446655281 -0.0061353493947535745 0.45021846890449529 0.69792744517326366 16.730220794677738 0.0031692846678197388 21.613904953002933 -0.38049484789371485 8.9758157730102557 -0.092636000365018831 0.94036710262298595 -2.4999999999999996 -0.0039336539339274159 -0.05396302975714206 0.049994375556707389 0.10030699893832208 0.92673981189727794 44305.000000000007 -0.17990682274103162 -0.054215500131249421 -0.28815436363220209 17487880.000000004 -0.011809283401817082 0.20291206985712054 -0.024791499599814412 0.0015747748548164966 0.69792744517326366 0.00095799643895588826 -0.013547889888286589 0.056591920554637916 0.79903846979141246 0.36149096488952642 -0.49981462955474848 0.0011688403901644053 0.9747692644596101 -0.75219315290451039 0.9071367383003236 0.54115316271781932 0.11108562722802164 -0.021871056407690045 39634588.000000007 -3.088367104530334 -5.4095716476440421 7.5456438064575204 0.64620566368103038 -1.0058140158653257 -0.020500328391790387 -0.068552382290363298 0.032367000356316573 -0.16891172528266904 0.88262540102005016 2.500979065895081 0.79902693629264843 -0.2791039496660232 0.21873994171619418 0.80351367592811596
decision_type=8 8 8 10 8 8 8 8 8 10 8 2 8 10 8 8 10 10 10 8 10 10 10 10 8 8 8 8 10 8 10 2 8 10 10 8 10 8 8 2 10 8 10 10 10 10 10 8 8 8 8 10 8 8 8 10 10 10 8 8 8 8
left_child=1 5 3 10 7 44 8 24 61 14 -2 29 41 19 52 43 31 -8 -11 20 56 22 23 -9 -4 -14 -12 34 -29 -10 -13 33 -33 -15 -18 -31 40 -17 -28 -40 -21 -6 49 -16 46 -46 47 -1 -49 -26 -27 -47 -5 -48 -52 -43 -7 -24 -57 -32 -53 -3
right_child=2 6 4 9 12 13 17 21 11 18 26 30 25 16 15 37 27 -19 -20 36 -22 -23 57 -25 42 50 38 28 -30 35 59 32 -34 -35 -36 -37 -38 -39 39 -41 -42 55 -44 -45 45 51 53 48 -50 -51 54 60 -54 -55 -56 58 -58 -59 -60 -61 -62 -63
leaf_value=0.0010566056696868162 0.00041323980950919739 -9.3148308736234166e-05 -0.00075581586383169982 0.00018030732772242146 -0.00048590305803596301 -0.00051383890015846596 0.00056448907744445465 0.0025682360647129965 -0.00062891434096903388 -0.0026094071573273493 -0.0032239099422567766 -0.0043637639694488525 -0.0013506773067039572 3.2035227202881476e-05 6.7967180245330199e-05 0.0007422550455399307 -0.0018976991482407353 -0.0016810520207346958 -9.8361160863062416e-05 -0.0017402937559559942 0.00081584382904239877 0.00039773735123196463 0.0034405131411177456 0.0012127893752911362 0.002553821162634794 -0.00087081423661683531 -0.0002667759681237253 0.0016270370643587813 -8.5497341605864308e-05 -0.0022268958631979667 -0.0018709709348575369 -0.00010214217879604645 -0.002111361329353083 -0.0013309474708482225 -0.00021989019583505126 -0.003840092854594569 -0.00079888580639415701 0.00015805613544302732 -0.0010698382268112584 -0.003080698042180142 -0.0035253809038516921 0.00067001210222850159 -0.00015999773259512028 -0.0011261605644696667 0.0022108345050873214 0.0011929710301288702 0.0018690153212183251 0.0005055665740580609 -0.00071181522814322423 0.0010478965192290274 0.0010368919999828028 0.00060383136600858573 0.0016117396744090181 2.403742569972645e-05 -5.0132872432695816e-05 0.00089880369091912789 -0.0022288771249445445 0.0019587327049860898 0.0019127781539265325 -0.0035337000842150012 -0.00098315631247580977 -0.0016203487791015632
leaf_weight=830 545 608 530 586 506 526 911 2669 513 503 660 987 730 1684 1635 6737 646 511 546 870 516 683 1104 3944 546 618 581 733 1786 4880 536 568 1607 1267 1483 547 598 7213 689 564 635 2651 611 1416 517 824 518 891 3203 2661 1374 505 1764 502 1430 1322 543 546 1487 509 541 501
leaf_count=830 545 608 530 586 506 526 911 2669 513 503 660 987 730 1684 1635 6737 646 511 546 870 516 683 1104 3944 546 618 581 733 1786 4880 536 568 1607 1267 1483 547 598 7213 689 564 635 2651 611 1416 517 824 518 891 3203 2661 1374 505 1764 502 1430 1322 543 546 1487 509 541 501
internal_value=-3.93957e-05 -0.000950863 0.000588912 7.09326e-05 0.0011073 -0.00041257 -0.00206691 0.00154366 -0.00235183 0.0003056 -0.00150175 -0.00256848 0.00053334 -0.000813568 0.000393602 0.000273893 -0.000574739 -0.000244465 -0.00131051 -0.00144448 -0.000672464 0.00188037 0.00200243 0.0017616 0.000849168 -4.30194e-05 -0.00192081 -0.000110997 0.000414472 -0.0022417 -0.00351516 -0.000994426 -0.00158878 -0.00055391 -0.000732942 -0.00239315 -0.00202264 0.000440461 -0.00144356 -0.00198481 -0.00250364 0.000934405 0.00107305 -0.000486685 0.000235318 0.000800869 7.46884e-06 -0.000191773 -0.00044621 0.00130833 0.000237063 0.000405399 0.00125657 0.000967007 0.000482888 0.00106663 -0.00139271 0.00295848 0.00143855 -0.00269525 -0.000216317 -0.000788596
internal_weight=79147 32296 46851 23439 23412 21793 10503 13294 9081 20400 3039 7972 10118 13462 19351 17001 9774 1422 1049 3688 1585 8946 8263 6613 4348 4152 2494 4648 2519 5940 2032 5126 2175 2951 2129 5427 2103 13950 1834 1253 1505 5966 3818 3051 8331 2387 5944 4924 4094 3207 3422 1870 2350 1020 2804 5460 1069 1650 2809 1045 1046 1109
internal_count=79147 32296 46851 23439 23412 21793 10503 13294 9081 20400 3039 7972 10118 13462 19351 17001 9774 1422 1049 3688 1585 8946 8263 6613 4348 4152 2494 4648 2519 5940 2032 5126 2175 2951 2129 5427 2103 13950 1834 1253 1505 5966 3818 3051 8331 2387 5944 4924 4094 3207 3422 1870 2350 1020 2804 5460 1069 1650 2809 1045 1046 1109
is_linear=0
shrinkage=0.015


Tree=15
num_leaves=63
num_cat=0
split_feature=54 37 2 37 29 29 37 41 12 65 29 57 29 66 68 54 5 23 9 62 12 41 58 23 26 24 25 58 30 32 50 29 12 23 66 0 31 3 2 54 28 50 37 62 56 3 2 24 68 12 5 41 52 26 41 12 8 29 9 41 8 30
split_gain=223.125 82.4513 55.0167 44.8167 31.8695 23.6718 16.9462 14.8412 13.8075 12.3806 11.6306 10.6969 8.9605 8.79839 8.55738 8.17266 8.07821 7.46747 6.90518 10.7857 6.97201 6.78359 6.78093 6.57726 6.23206 5.63581 5.54157 5.511 5.78037 5.44959 5.43796 5.38039 5.30293 5.05955 5.61801 6.58724 5.01832 4.7988 5.55263 4.76786 4.53925 5.90803 5.65588 4.6623 4.53309 4.47619 4.40065 4.16329 5.06583 3.64105 3.53941 4.22339 3.53553 3.39919 3.38273 2.98858 2.76448 2.60892 2.60516 2.41366 2.40662 2.33802
threshold=1.8504143953323366 1.432189464569092 inf inf 0.53807017207145702 0.69792744517326366 0.016136183403432373 0.31992809474468237 0.19775429368019107 -0.45557245612144465 0.69792744517326366 5.5000000000000009 0.75458368659019481 9820312.0000000019 0.019695867784321312 16.219314575195316 -7.4999999999999991 -0.072424910962581621 0.93271261453628551 1.3812085390090945 0.111546877771616 -0.12857125699520108 0.098877392709255232 -0.058136718347668641 0.003113640821538866 -7.9285490512847892 -1.2340077161788938 0.69397503137588512 inf 1.0000000180025095e-35 115.50000000000001 0.48478762805461889 0.50738930702209484 0.019800510257482532 13493436.000000002 -0.029067001305520531 0.45176798105239874 0.17952259629964831 12.324799060821535 17.600595474243168 12.500000000000002 102.50000000000001 -0.019034989178180691 -0.16002196073532102 1.0093528628349306 0.21076405793428424 1.7084745168685915 -0.92981043457984913 0.0010993717005476358 0.56071487069129955 -4.4999999999999991 0.030181602574884895 2.2107944488525395 -0.0010395802673883734 -0.3156138658523559 1.0403341650962832 -2.380245447158813 0.21088316291570666 1.1646756529808047 -0.069502212107181535 -2.4799941778182979 0.45643940567970281
decision_type=8 8 8 8 8 8 8 8 8 8 10 8 10 8 10 8 8 8 10 10 10 10 10 8 8 10 10 10 8 10 8 8 10 10 8 10 10 10 8 10 8 8 10 10 8 8 10 8 10 8 8 8 8 10 10 8 10 10 8 10 10 8
left_child=1 4 3 10 16 11 7 23 25 29 15 47 14 27 26 24 30 22 37 20 -20 -19 -17 55 44 -7 -10 28 -6 -5 -1 39 58 34 35 -9 -11 38 -15 57 -18 42 -42 -43 -2 -14 -26 56 52 -39 -33 -52 -49 -12 -30 -4 -3 61 -25 -13 -59 -8
right_child=2 5 6 9 13 8 31 33 12 36 53 59 45 18 -16 17 40 21 19 -21 -22 -23 -24 32 46 -27 -28 -29 54 -31 -32 50 -34 -35 -36 -37 -38 49 -40 -41 41 43 -44 -45 -46 -47 -48 48 -50 -51 51 -53 -54 -55 -56 -57 -58 60 -60 -61 -62 -63
